tree
version=v4
num_class=1
num_tree_per_iteration=1
label_index=0
max_feature_idx=28
objective=quantile
feature_names=net_cf_ma4 net_cf_ma8 net_cf_ma12 net_cf_std8 net_cf_trend8 inflow_ma4 inflow_std8 inflow_cv8 inflow_yoy upi_share upi_share_chg8 top_cp_share cp_count_chg8 runway_weeks balance_chg8 emi_to_inflow mandi_mom8 rain_anom festival_now festival_next6 woy_sin woy_cos seg_kirana seg_dairy seg_tailoring seg_agri_inputs seg_food_processing seg_handloom horizon
feature_infos=[-7521.875:40881.602500000001] [-6685.8924999999999:35842.267500000002] [-5806.0983333333343:32884.277500000004] [114.24718152197958:16359.391233591998] [-4735.9639285714265:4075.8107142857125] [4229.454999999999:123774.595] [279.56771450376903:36614.875198252201] [0.024503934317644742:1.0911005600282482] [-0.70631966855226147:0.91717004711475814] [0.16788134551563078:0.86381137580400102] [-0.17970253515583717:0.24517411621585677] [0.02:0.97999999999999998] [-0.7338709677419355:4] [0.49631786243106463:7.3181335638301173] [-0.58552528640992885:1.7821988313626937] [0:0.41936220660129248] [-0.12969220933418568:0.13885714285714301] [-38.360749999999996:58.891999999999996] [0.0040000000000000001:1.2190000000000001] [0.062:1.2190000000000001] [-1:1] [-1:1] [0:1] [0:1] [0:1] [0:1] [0:1] [0:1] [1:12]
tree_sizes=5439 5642 5622 5615 5617 5649 5644 5643 5668 5648 5617 5686 5652 5682 5697 5703 5702 5673 5698 5687 5685 5737 5754 5748 5728 5697 5767 5772 5700 5744 5724 5780 5822 5781 5735 5756 5742 5779 5813 5765 5751 5746 5740 5750 5752 5833 5772 5793 5767 5767 5730 5791 5762 5762 5787 5733 5762 5765 5816 5743 5782 5771 5768 5833 5802 5797 5752 5757 5796 5773 5808 5766 5808 5720 5792 5759 5767 5794 5795 5796 5780 5763 5764 5783 5812 5764 5797 5773 5756 5715 5679 5752 5817 5766 5689 5774 5786 5706 5726 5696 5767 5738 5721 5715 5681 5751 5793 5775 5784 5721 5752 5750 5788 5757 5676 5781 5721 5777 5788 5786 5725 5762 5770 5808 5776 5699 5709 5695 5759 5761 5738 5797 5731 5637 5760 5734 5674 5731 5767 5702 5742 5733 5796 5706 5637 5814 5725 5728 5749 5766 5715 5715 5632 5791 5758 5665 5698 5602 5698 5663 5661 5691 5689 5683 5763 5775 5719 5759 5658 5707 5644 5682 5724 5740 5698 5710 5700 5720 5636 5757 5716 5592 5683 5774 5677 5670 5694 5716 5749 5684 5658 5595 5677 5705 5731 5677 5738 5680 5666 5623 5795 5645 5676 5694 5664 5691 5756 5650 5725 5655 5667 5627 5672 5779 5710 5691 5712 5822 5656 5704 5661 5723 5674 5729 5692 5693 5567 5712 5694 5672 5735 5671 5669 5716 5649 5696 5650 5659 5664 5653 5654 5766 5643 5742 5627 5801 5683 5599 5647 5742 5730 5666 5651 5691 5705 5743 5629 5642 5744 5611 5589 5705 5796 5631 5638 5759 5689 5627 5660 5760 5662 5653 5676 5641 5642 5610 5701 5687 5592 5617 5705 5699 5626 5730 5701 5656 5652 5628 5660 5612 5712 5726 5658 5638 5677 5675 5645 5764 5694 5663 5713 5648 5643 5711 5699 5684 5688 5599 5664 5686 5656 5631 5731 5679 5685 5639 5664 5651 5651 5668 5658 5646 5683 5698 5672 5661 5725 5673 5684 5663 5714 5765 5696 5690 5696 5763 5669 5766 5651 5743 5700 5621 5677 5755 5731 5640 5769 5766 5777 5669

Tree=0
num_leaves=63
num_cat=0
split_feature=2 2 5 21 21 2 11 20 15 19 21 5 20 11 20 11 26 2 4 26 20 2 11 17 2 20 11 13 19 9 2 11 16 1 11 13 6 13 18 28 5 2 8 11 18 28 8 12 2 18 28 18 28 6 2 6 17 2 11 5 17 20
split_gain=2641.51 439.758 425.03 289.246 231.084 120.82 61.6563 57.1048 57.0853 56.1036 54.4478 49.4271 47.8629 36.4367 34.7503 43.9031 34.4005 38.7423 34.0307 28.2607 26.8649 70.7621 23.8498 21.6444 21.4163 28.5511 20.6993 20.6381 19.9359 19.2488 18.8837 18.7477 18.2071 19.4559 17.1747 16.4031 16.2085 17.2561 15.8634 16.2824 15.1298 13.8847 13.5858 12.8868 12.4444 16.4266 12.5998 12.349 12.054 11.5287 19.1886 11.3603 12.8806 11.3535 11.3025 11.3094 11.1878 11.0784 10.4219 10.284 11.4894 10.0825
threshold=11697.317500000003 16673.556666666671 29203.888750000002 0.70581670320594814 0.5163939593874618 8812.6216666666678 0.79925000000000013 -0.61559370248597534 0.094383241437222723 0.29450000000000004 0.70581670320594814 52668.871250000004 0.40966402954315223 0.96150000000000013 0.46472317204376884 0.43305000000000005 1.0000000180025095e-35 5522.6008333333348 -9.1686904761904469 1.0000000180025095e-35 -0.61559370248597534 5658.4866666666676 0.30440000000000006 10.412999999999998 8177.3095833333346 0.51639395938746258 0.68350000000000011 3.1068494209658231 0.29450000000000004 0.60552637286591382 9493.6595833333358 0.18595000000000003 0.0015498253301261535 5696.9331250000005 0.70215000000000016 2.6471625239245058 4550.3852941758696 4.5278043404498804 0.91400000000000003 5.5000000000000009 38133.988750000004 13733.595000000003 0.18401592516601065 0.21685000000000001 0.25450000000000006 6.5000000000000009 0.14533716470402872 0.13359580052493439 3502.9225000000006 1.1720000000000002 3.5000000000000004 0.56700000000000006 5.5000000000000009 6257.9961698931938 21911.320833333335 11394.717699278945 16.904625000000014 9606.4570833333364 0.80610000000000015 42713.431250000009 -8.9917500000000032 -0.95297903005573326
decision_type=2 2 2 2 2 2 2 2 2 2 2 2 2 2 2 2 2 2 2 2 2 2 2 2 2 2 2 2 2 2 2 2 2 2 2 2 2 2 2 2 2 2 8 2 2 2 8 2 2 2 2 2 2 2 2 2 2 2 2 2 2 2
left_child=2 3 20 8 5 7 10 16 14 -7 -3 31 19 24 23 59 17 56 26 41 21 48 -14 36 -6 49 -11 -23 -10 54 -29 -9 33 -13 57 -20 -2 -38 43 -40 -15 -5 -17 -19 -37 46 -46 -35 -1 -26 -51 52 -50 58 55 -12 -4 -27 -54 60 -16 -18
right_child=1 6 4 12 13 9 -8 11 28 18 29 32 22 40 15 42 61 38 35 -21 -22 27 -24 -25 25 34 -28 30 -30 -31 -32 -33 -34 47 -36 44 37 -39 39 -41 -42 -43 -44 -45 45 -47 -48 -49 51 50 -52 -53 53 -55 -56 -57 -58 -59 -60 -61 -62 -63
leaf_value=11667.222744140625 12161.96173828125 12895.893691406251 11876.531383962872 12054.291594619732 11745.601347656249 12208.28296875 13279.67724609375 12114.43154296875 12159.419172639095 12318.299997376576 12368.10369140625 12159.47771484375 12403.742411405732 12224.405251443372 12160.6651171875 12316.423886718751 12466.36037109375 12216.962134648847 12578.118105468749 11947.075858987038 11644.158134765625 11990.81056640625 12163.264809843837 12578.118105468749 11914.464461443964 12076.920761718749 12043.843945312499 12148.353164062501 12606.259980468751 12610.32615234375 12995.23330078125 11870.579531249999 12074.184140625001 12401.08095703125 11919.612238421661 12869.420642448216 12419.762501436035 12941.54419921875 12312.683348021619 11911.0747265625 11903.836916274839 12123.850150583256 12141.601933593751 12412.667519531249 12474.453416250246 12145.297963638086 12278.746236831845 12166.300906645283 11832.69076171875 12279.996152343751 11963.880951332152 11751.150117187501 11998.864571914226 12363.610129094444 12500.311955669615 12294.22388671875 12174.94075881131 12240.669952448714 12199.26732421875 12879.651366245449 12339.443496093751 12424.92439453125
leaf_weight=11741 212 1342 1117 1730 7711 1587 1440 1065 364 503 361 426 291 95 86 40 434 426 528 1300 65805 964 303 395 4964 371 379 1009 337 392 90 4129 491 392 362 455 1052 169 191 273 41 1359 232 573 207 351 201 97 1203 150 449 2548 1525 84 183 698 297 408 71 801 232 523
leaf_count=11741 212 1342 1117 1730 7711 1587 1440 1065 364 503 361 426 291 95 86 40 434 426 528 1300 65805 964 303 395 4964 371 379 1009 337 392 90 4129 491 392 362 455 1052 169 191 273 41 1359 232 573 207 351 201 97 1203 150 449 2548 1525 84 183 698 297 408 71 801 232 523
internal_value=11969.5 11969.5 11969.5 11969.5 11969.5 11969.5 11969.5 11969.5 11969.5 11969.5 11969.5 11969.5 11969.5 11969.5 11969.5 11969.5 11969.5 11969.5 11969.5 11969.5 11969.5 11969.5 11969.5 11969.5 11969.5 11969.5 11969.5 11969.5 11969.5 11969.5 11969.5 11969.5 11969.5 11969.5 11969.5 11969.5 11969.5 11969.5 11969.5 11969.5 11969.5 11969.5 11969.5 11969.5 11969.5 11969.5 11969.5 11969.5 11969.5 11969.5 11969.5 11969.5 11969.5 11969.5 11969.5 11969.5 11969.5 11969.5 11969.5 11969.5 11969.5 11969.5
internal_weight=127555 13319 114236 8903 29196 14645 4416 10434 3920 4211 2976 6600 4983 14551 3219 1391 3834 2877 2624 4389 85040 19235 594 1828 14415 6704 882 2063 701 1634 1099 5194 1406 915 1141 1742 1433 1221 1463 464 136 3089 272 999 1214 759 408 489 17172 5563 599 5431 2883 1680 1242 1059 1414 779 1596 1119 318 957
internal_count=127555 13319 114236 8903 29196 14645 4416 10434 3920 4211 2976 6600 4983 14551 3219 1391 3834 2877 2624 4389 85040 19235 594 1828 14415 6704 882 2063 701 1634 1099 5194 1406 915 1141 1742 1433 1221 1463 464 136 3089 272 999 1214 759 408 489 17172 5563 599 5431 2883 1680 1242 1059 1414 779 1596 1119 318 957
is_linear=0
shrinkage=1


Tree=1
num_leaves=63
num_cat=0
split_feature=0 2 0 14 20 5 14 21 20 20 25 28 11 25 20 21 21 21 28 14 20 28 20 2 5 18 28 26 11 9 5 25 20 23 11 28 5 14 18 28 26 16 15 15 26 13 0 1 28 14 14 2 19 0 28 2 24 18 17 17 13 5
split_gain=2498.68 406.088 317.855 247.592 123.88 83.394 73.0493 69.1302 66.087 64.8039 63.7927 53.3367 52.1159 52.0263 63.3793 42.519 41.7197 35.7492 31.4173 28.6378 28.1468 27.9125 27.0611 39.4342 24.2164 26.3433 22.2567 21.8044 21.6883 21.1178 21.0964 20.5234 35.3982 20.3698 20.3236 19.2978 19.203 19.0572 18.3801 15.4213 17.1095 15.3827 15.0099 14.1479 14.1248 14.0312 14.6437 13.9357 16.0788 13.3504 12.5581 12.5231 12.291 11.9319 11.8867 11.723 11.6097 10.9736 10.9018 11.3221 10.4295 10.3748
threshold=11315.101250000002 16673.556666666671 7473.3774999999996 0.153225007153793 -0.91023613416931226 33995.748750000006 0.1489095173304337 0.29696027566504685 -0.91023613416931226 0.46472317204376884 1.0000000180025095e-35 3.5000000000000004 0.79925000000000013 1.0000000180025095e-35 -0.51639395938746191 0.5163939593874618 0.70581670320594814 0.78574730703237883 8.5000000000000018 -0.25184049052050556 -0.95297903005573326 5.5000000000000009 -0.70581670320594825 5444.0470833333347 26373.976250000003 0.56700000000000006 7.5000000000000009 1.0000000180025095e-35 0.22665000000000005 0.56112420822578979 48925.120000000003 1.0000000180025095e-35 -0.35460488704253573 1.0000000180025095e-35 0.16965000000000002 4.5000000000000009 38932.960000000006 -0.16959458292525922 0.56700000000000006 4.5000000000000009 1.0000000180025095e-35 -0.047597743378723238 0.11767382162237065 0.11370167922248438 1.0000000180025095e-35 4.5464623006556666 13368.620000000004 5390.8631250000008 6.5000000000000009 -0.093712536028911983 -0.17797284017772272 11697.317500000003 0.16000000000000003 14755.181250000003 6.5000000000000009 9606.4570833333364 1.0000000180025095e-35 0.81450000000000011 -12.905999999999997 -23.672999999999998 1.9653115732536153 39673.766250000008
decision_type=2 2 2 2 2 2 2 2 2 2 2 2 2 2 2 2 2 2 2 2 2 2 2 2 2 2 2 2 2 2 2 2 2 2 2 2 2 2 2 2 2 2 2 2 2 2 2 2 2 2 2 2 2 2 2 2 2 2 2 2 2 2
left_child=2 3 5 9 18 22 13 31 35 20 34 17 15 14 21 58 36 53 44 61 26 -6 23 24 -1 39 -2 56 49 -17 -14 32 60 41 -11 -5 -15 -22 -20 -26 -41 -13 -31 54 57 -39 -47 -33 -49 -21 -18 -35 -50 -10 -38 -37 -25 -4 59 -3 -7 -16
right_child=1 12 4 8 6 7 -8 -9 11 10 -12 33 30 16 19 29 50 -19 38 28 37 -23 -24 27 25 -27 -28 -29 -30 42 -32 47 -34 51 -36 55 43 45 -40 40 -42 -43 -44 -45 -46 46 -48 48 52 -51 -52 -53 -54 -55 -56 -57 -58 -59 -60 -61 -62 -63
leaf_value=-213.53582343750003 790.64651132832273 895.37313632812493 327.98112070312504 1000.038010725985 131.0538586233709 2.8378849406129212 -113.79226881770447 -177.50638529087848 347.72925374308909 216.44545400072207 787.61033208777303 414.8307155287257 474.08402275286613 219.61183242769053 66.309339614095961 365.88863823947173 197.6180991683388 100.64270525891911 443.91073007812503 178.16321718750001 433.57774998836356 928.797613015607 -320.54507402343745 22.711636802322069 -39.214747732458996 -189.6788459167492 456.39794488408472 432.25115390624995 -52.784652171581051 754.66464960937492 1285.3028027343751 183.72501240527262 -121.88101423621771 66.857332613387726 218.99342460937496 200.84143406845902 350.55487480878082 254.45691838531607 -42.974500349299028 122.05198119974 469.56336445312496 7.1048625232776974 240.44419330846998 348.57620889661894 838.24716080949258 265.68676658765645 913.75000429687498 262.51503281250001 95.752600258513965 20.918854296010796 33.026197341997715 326.81859279725876 416.25701953125002 469.80393849813663 512.07516169414748 929.58164962420574 389.51829140315192 232.6703337104671 870.83852695312498 988.38520664062492 435.32991234842603 425.64309715395768
leaf_weight=13422 254 109 616 135 207 178 5308 5212 341 328 1319 109 236 1059 126 1210 381 560 262 593 231 293 70055 912 279 893 194 155 4286 501 1159 911 1361 409 491 128 239 1610 330 365 216 3150 43 434 189 178 84 368 63 1198 1090 400 316 425 169 153 148 409 819 251 652 137
leaf_count=13422 254 109 616 135 207 178 5308 5212 341 328 1319 109 236 1059 126 1210 381 560 262 593 231 293 70055 912 279 893 194 155 4286 501 1159 911 1361 409 491 128 239 1610 330 365 216 3150 43 434 189 178 84 368 63 1198 1090 400 316 425 169 153 148 409 819 251 652 137
internal_value=-0.000190305 0.0229661 -0.00323323 0.0165907 0.00424356 -0.00458962 0.00251289 0.000886656 0.00831325 0.0268471 0.0345519 0.00653615 0.0384316 0.00548061 0.00247368 0.0338909 0.0115801 0.0169864 0.0191163 0.000851734 0.0203896 0.02304 -0.00516363 -0.00296888 -0.00380165 0.00283057 0.0340446 0.0074321 1.28339e-05 0.0279681 0.0479785 0.00698519 0.00317389 0.00312979 0.0213993 0.0313558 0.0174508 0.0174807 0.00778378 0.0103256 0.0158933 0.00101442 0.0377868 0.0242138 0.0246425 0.0154744 0.0283511 0.0120217 0.0180964 0.00555779 0.0039932 0.0116514 0.0267704 0.0254099 0.0322353 0.0223986 0.00435849 0.0218634 0.0427023 0.034 0.0129398 0.0202357
internal_weight=127659 14827 112832 10499 17326 95506 15520 9061 5810 4689 2138 5394 4328 10212 6840 2933 3372 1326 1806 6340 2551 500 86445 16390 15175 1753 448 1215 6077 1754 1395 3849 2191 4068 819 416 1901 2103 592 860 581 3259 544 842 1214 1872 262 1658 747 1791 1471 809 379 766 408 281 1060 1025 1179 360 830 263
internal_count=127659 14827 112832 10499 17326 95506 15520 9061 5810 4689 2138 5394 4328 10212 6840 2933 3372 1326 1806 6340 2551 500 86445 16390 15175 1753 448 1215 6077 1754 1395 3849 2191 4068 819 416 1901 2103 592 860 581 3259 544 842 1214 1872 262 1658 747 1791 1471 809 379 766 408 281 1060 1025 1179 360 830 263
is_linear=0
shrinkage=0.06


Tree=2
num_leaves=63
num_cat=0
split_feature=0 2 5 14 21 20 21 13 21 5 2 28 11 2 14 15 0 20 24 13 11 14 0 18 8 19 11 28 2 2 17 13 28 5 23 0 28 6 11 17 11 24 22 14 15 6 20 2 15 11 3 13 2 5 20 2 28 24 14 13 20 4
split_gain=2148.82 363.605 286.267 230.072 126.645 90.7215 63.4188 55.4674 55.9029 48.9146 44.4141 44.3538 41.59 35.1332 33.5352 30.6417 30.5473 31.3879 28.7444 27.0401 26.0306 23.1958 22.9385 22.8209 22.6565 21.2003 21.1995 20.4515 20.0488 19.9242 19.9035 18.5634 16.6985 16.1105 16.0728 15.8505 14.9221 14.1686 13.1648 12.971 16.501 12.2777 19.053 17.8911 13.0402 11.9165 11.3879 10.6898 10.2257 9.73043 9.41892 9.39455 9.33777 9.28251 9.22592 18.9284 13.9687 10.0327 9.19092 9.18774 9.04603 9.03614
threshold=11315.101250000002 18091.682916666672 28573.486250000005 0.153225007153793 0.40966402954315184 -0.61559370248597534 0.61559370248597578 1.5746526972576056 0.5163939593874618 51480.741250000006 6964.7450000000008 4.5000000000000009 0.79925000000000013 7877.3662500000019 -0.14574608480479731 0.095707084663648731 6065.1475000000009 -0.70581670320594825 1.0000000180025095e-35 2.3540028007911142 0.23505000000000001 -0.11795293082047631 9294.6512500000026 0.81450000000000011 -0.32699874170222276 0.14250000000000004 0.24475000000000002 2.5000000000000004 11578.759583333336 10473.66666666667 16.904625000000014 3.3690517423699506 3.5000000000000004 55100.950000000004 1.0000000180025095e-35 17816.775000000005 5.5000000000000009 4397.9849674490315 0.77725000000000011 0.74937500000000035 0.43995000000000006 1.0000000180025095e-35 1.0000000180025095e-35 0.18071621109764122 0.12785373882153916 10022.674576612144 -0.70581670320594825 15193.617916666668 0.081429010348954625 0.73455000000000015 4341.5113887477273 3.8566928019759632 5486.1891666666679 39673.766250000008 -0.51639395938746191 4807.7954166666686 6.5000000000000009 1.0000000180025095e-35 0.074569243743453681 4.922106744704954 -0.1799261722714405 -289.61619047618984
decision_type=2 2 2 2 2 2 2 2 2 2 2 2 2 2 2 2 2 2 2 2 2 2 2 2 8 2 2 2 2 2 2 2 2 2 2 2 2 2 2 2 2 2 2 2 2 2 2 2 2 2 2 2 2 2 2 2 2 2 2 2 2 2
left_child=2 3 16 7 5 10 11 48 15 20 30 25 18 -6 22 19 54 23 46 -9 41 -10 -15 31 -16 -5 -12 35 -21 -13 52 -18 61 -14 47 -8 58 -30 -25 -31 -41 42 43 44 -7 -11 -3 -29 -2 53 -42 -32 -4 -34 55 -1 -57 -58 -17 -24 -36 -28
right_child=1 12 4 6 13 9 27 8 21 45 26 29 33 14 24 36 17 -19 -20 28 -22 -23 59 38 -26 -27 32 34 37 39 51 -33 49 -35 60 -37 -38 -39 -40 40 50 -43 -44 -45 -46 -47 -48 -49 -50 -51 -52 -53 -54 -55 -56 56 57 -59 -60 -61 -62 -63
leaf_value=-234.8020257890625 614.94029534368678 901.98165283593744 55.858572308993239 102.50781333893352 -203.57340707845066 326.44462179224479 141.87350659988618 139.52129022656248 360.17752907009879 302.50143787870235 283.45741179490511 25.592139272630689 562.78071301031832 65.291604764035299 225.93029808145587 719.43999100781252 46.228828271105478 -105.12016255078125 90.81463066986629 408.56285624660859 -59.324833402187721 135.28371461433116 203.10477604939311 -133.60544153078072 -37.720394316410058 631.65297181500841 -65.668763667712426 -49.047030590646983 378.64312336342095 205.69140490387909 238.13643455596943 328.87127165643585 330.39910507094061 1208.1846345703125 122.63930506806257 587.15272830014703 259.41830139749118 774.24527466250663 126.96902149676011 237.7651573016187 161.26528045743876 -90.324029007156653 17.599771484232598 -42.586180226005943 148.47333322999106 221.48660943897616 564.00529481843284 108.27643209625668 365.59908944531253 391.34366298267491 1379.7234020267817 852.91682604736229 316.46109887137362 967.15385779717053 -346.40837544140624 -84.251714699096354 67.987783040951754 295.85543247317173 345.57558189124165 571.88648142094792 250.30728756006479 264.74221056463438
leaf_weight=17917 354 454 1174 127 8550 504 538 312 596 776 908 577 284 1483 78 83 470 8057 116 690 4615 1018 655 824 5455 643 88 2062 260 525 821 404 130 931 726 112 278 1483 131 245 50 422 796 226 264 636 1579 389 43 290 101 102 408 328 54816 742 600 126 130 64 41 168
leaf_count=17917 354 454 1174 127 8550 504 538 312 596 776 908 577 284 1483 78 83 470 8057 116 690 4615 1018 655 824 5455 643 88 2062 260 525 821 404 130 931 726 112 278 1483 131 245 50 422 796 226 264 636 1579 389 43 290 101 102 408 328 54816 742 600 126 130 64 41 168
internal_value=-0.00046042 0.0210808 -0.00327094 0.0159591 0.00187602 0.00637832 0.00807105 0.0251835 0.0234186 0.00265882 0.0133163 0.016037 0.0384114 -0.00162297 0.00130704 0.0279679 -0.00504242 -0.00190937 0.0333951 0.0304372 0.000556319 0.0142974 0.00756948 0.00518644 -0.00118525 0.0277403 0.0202029 0.00340021 0.0325697 0.0100214 0.00805988 0.0121922 0.0262112 0.0472839 0.0014394 0.0131077 0.0141629 0.0359966 -0.00122513 0.0154984 0.023697 0.00590777 0.00807821 0.0136177 0.0179844 0.0128244 0.0350526 -0.000932682 0.0467456 0.030738 0.039298 0.0150618 0.00397471 0.0361834 -0.00545985 -0.0043348 0.00221526 0.00813223 0.0261127 0.0163644 0.00901956 0.0129844
internal_weight=127775 14747 113028 11383 28941 12656 6136 5247 4850 8239 4417 2268 3364 16285 7735 3236 84087 9886 2149 2745 6827 1614 2202 1829 5533 770 1912 3868 2433 1498 2505 874 1004 1215 3218 650 491 1743 955 921 396 2212 1790 994 768 1412 2033 2451 397 748 151 923 1582 458 74201 19385 1468 726 213 719 767 256
internal_count=127775 14747 113028 11383 28941 12656 6136 5247 4850 8239 4417 2268 3364 16285 7735 3236 84087 9886 2149 2745 6827 1614 2202 1829 5533 770 1912 3868 2433 1498 2505 874 1004 1215 3218 650 491 1743 955 921 396 2212 1790 994 768 1412 2033 2451 397 748 151 923 1582 458 74201 19385 1468 726 213 719 767 256
is_linear=0
shrinkage=0.06


Tree=3
num_leaves=63
num_cat=0
split_feature=0 2 5 21 21 20 25 20 21 2 20 1 0 0 14 0 20 18 28 0 13 13 26 26 28 24 14 1 14 28 19 20 13 9 1 18 28 28 13 2 28 17 16 14 20 28 13 7 13 20 17 17 28 1 5 1 21 28 28 2 18 20
split_gain=1845.8 319.59 262.35 196.945 112.981 89.9745 91.7841 70.5709 62.7764 59.5212 41.7875 38.6113 34.4141 33.3075 30.3049 27.2608 31.1454 24.8155 24.0508 24.9739 23.5688 22.4593 22.2162 21.4489 19.5984 18.4536 16.3306 16.9291 16.2545 16.0024 21.8271 15.4264 15.2647 17.0065 15.0941 14.5198 39.7518 14.4339 15.8277 13.4483 13.2581 13.0631 15.0434 12.933 12.5334 20.0023 12.6472 12.2504 12.156 11.0948 11.0742 9.77786 9.72359 9.54861 9.42571 9.24426 9.24044 8.92711 8.87164 8.75496 8.5414 8.49641
threshold=11315.101250000002 18091.682916666672 28573.486250000005 0.5163939593874618 0.29696027566504685 -0.61559370248597534 1.0000000180025095e-35 0.17992617227144039 -0.88545602565320969 9606.4570833333364 0.46472317204376884 7006.1650000000009 9395.7687500000011 21916.047500000004 -0.14007337158955507 5725.5887500000017 -0.70581670320594825 0.24600000000000002 3.5000000000000004 17816.775000000005 4.4114883963376803 1.5192196659499706 1.0000000180025095e-35 1.0000000180025095e-35 4.5000000000000009 1.0000000180025095e-35 0.089831328984361913 12901.619375000002 -0.18000464274912212 4.5000000000000009 0.16000000000000003 -0.060268340127661565 2.4541463880707508 0.58771132718713026 8237.3818750000009 0.81450000000000011 5.5000000000000009 4.5000000000000009 3.3690517423699506 14240.243333333336 5.5000000000000009 -5.2886249999999952 -0.034582605784445435 -0.1515632925060045 -0.2393156642875576 8.5000000000000018 3.8220986713765721 0.16978594321823698 3.8714797408619734 -0.91023613416931226 -9.9974999999999969 -20.563499999999994 5.5000000000000009 9552.0281250000025 47619.175000000003 3980.4637500000003 0.5163939593874618 8.5000000000000018 3.5000000000000004 18799.022500000003 0.0080000000000000019 0.70581670320594825
decision_type=2 2 2 2 2 2 2 2 2 2 2 2 2 2 2 2 2 2 2 2 2 2 2 2 2 2 2 2 2 2 2 2 2 2 2 2 2 2 2 2 2 2 2 2 2 2 2 2 2 2 2 2 2 2 2 2 2 2 2 2 2 2
left_child=2 3 15 8 5 11 44 18 20 40 -8 22 28 25 61 -1 17 37 19 -5 24 -11 55 47 31 49 27 43 34 30 -12 -2 33 -23 -6 41 -37 -17 -39 -20 -10 42 57 -9 45 -7 -47 58 52 -3 -31 -22 -15 -52 -43 -4 -16 -34 -13 -51 -18 -14
right_child=1 13 4 7 12 6 10 26 9 21 29 23 14 48 56 16 60 -19 39 -21 51 32 -24 -25 -26 -27 -28 -29 -30 50 -32 -33 35 -35 -36 36 -38 38 -40 -41 -42 54 -44 -45 -46 46 -48 -49 -50 59 53 -53 -54 -55 -56 -57 -58 -59 -60 -61 -62 -63
leaf_value=-298.2236776024219 114.62716796692251 1203.0428533710938 -6.937609936692315 150.99598052165726 -23.241301760586005 -38.267088330524274 12.134409722140667 315.5516074638636 337.72340180188399 634.73199292781624 316.70111101076003 234.62921149653869 156.93834751118331 874.89379608433148 181.35352316886002 17.115921482805302 255.67880497262649 6.1651238132893491 -9.0192184996836673 557.61121455996988 235.48060278951687 161.51883423982528 426.66922504511132 1046.7474897900352 115.13800570608116 37.521187068564757 271.52928296330447 373.57664677637263 -153.00980044507412 249.30755871411318 86.305193799457257 512.38822958959554 688.22345040370783 593.16903722685697 163.75828300645816 671.82220502387827 67.423763413618374 111.28024232898206 488.34270059852827 119.02550616448227 26.413882394819378 374.14463636397505 279.83695126354331 38.0549051012147 -107.27614557487777 305.75742930274021 973.0214585468126 284.61810248565985 1113.2601189960938 424.46375328912035 310.76911727983651 643.9863717264592 463.37925858433141 598.2433740564644 870.83487501205593 187.21050422312166 -11.479279982115147 428.67191604735774 394.21226238079805 522.13625102965648 -121.88547370197435 313.10402513464572
leaf_weight=71810 212 140 710 1057 1698 343 805 262 250 289 125 172 516 255 540 196 125 1644 2684 202 40 350 623 213 885 91 56 431 11073 217 517 216 205 97 603 169 225 167 207 1044 338 663 225 259 4603 116 52 880 1066 282 792 100 360 88 981 818 2841 91 523 1208 9691 180
leaf_count=71810 212 140 710 1057 1698 343 805 262 250 289 125 172 516 255 540 196 125 1644 2684 202 40 350 623 213 885 91 56 431 11073 217 517 216 205 97 603 169 225 167 207 1044 338 663 225 259 4603 116 52 880 1066 282 792 100 360 88 981 818 2841 91 523 1208 9691 180
internal_value=-0.000708082 0.0192657 -0.00331486 0.0144236 0.00159914 0.00618936 0.00239906 0.0069608 0.0228081 0.0267891 0.0117123 0.0135583 -0.00145126 0.0353933 0.00337454 -0.00501742 -0.00237407 0.0040542 0.00403409 0.0112041 0.0121693 0.0299272 0.00814226 0.0200738 0.00967403 0.0295259 0.0214405 0.0195882 -0.00292239 0.0169442 0.00942056 0.020215 0.0283912 0.0181611 0.00166623 0.0301782 0.0195838 0.0148421 0.021754 0.00161266 0.00920408 0.0321062 0.0238273 0.0123109 -0.00223387 0.00668102 0.0236429 0.0176571 0.0414004 0.0309939 0.0213473 0.0355714 0.0346829 0.0243409 0.0347299 0.00424869 0.00102751 0.0327162 0.0236115 0.0294765 -0.00382396 0.0147759
internal_weight=127621 14733 112888 11331 29048 11597 7658 5995 5336 3883 2544 3939 17451 3402 4077 83840 12030 2214 4987 1259 1453 3295 2151 1788 1313 1721 1008 952 13374 1739 642 428 3006 447 2301 2559 394 570 374 3728 588 2165 521 521 5114 511 168 1575 1681 1630 1097 140 615 880 1644 1528 3381 296 695 1490 9816 696
internal_count=127621 14733 112888 11331 29048 11597 7658 5995 5336 3883 2544 3939 17451 3402 4077 83840 12030 2214 4987 1259 1453 3295 2151 1788 1313 1721 1008 952 13374 1739 642 428 3006 447 2301 2559 394 570 374 3728 588 2165 521 521 5114 511 168 1575 1681 1630 1097 140 615 880 1644 1528 3381 296 695 1490 9816 696
is_linear=0
shrinkage=0.06


Tree=4
num_leaves=63
num_cat=0
split_feature=0 2 21 5 21 8 2 25 14 2 21 8 17 28 26 2 14 17 28 19 18 21 14 0 0 13 19 25 16 18 14 13 2 17 18 13 13 15 0 28 13 2 2 5 15 25 25 21 28 26 14 2 15 13 28 13 12 28 28 28 26 8
split_gain=1581.22 342.59 171.079 148.307 81.3524 72.3532 65.7659 60.1719 55.2479 48.5278 73.1855 44.2538 35.1049 29.3923 31.6742 34.8639 24.8343 23.9306 23.0233 32.8597 23.2075 35.3535 19.544 22.9671 18.9139 16.3181 16.1101 42.7351 15.6527 20.2376 15.5771 14.8346 14.5497 14.3166 11.6714 11.6041 11.7449 10.8314 10.7345 10.4258 11.0416 10.2897 10.1992 10.0483 10.1698 10.0109 9.73049 9.7231 10.2113 9.24816 9.21918 9.11035 14.2822 8.91825 8.62848 8.35647 7.98543 7.9528 7.94524 7.8594 7.7263 7.65916
threshold=9727.1237500000007 15725.67 0.61559370248597578 26498.345000000005 0.23931566428755774 0.35812183892978094 11697.317500000003 1.0000000180025095e-35 -0.17371268692867511 21911.320833333335 0.5163939593874618 -0.32699874170222276 -8.4962499999999999 3.5000000000000004 1.0000000180025095e-35 6964.7450000000008 0.16080691197422928 -8.4962499999999999 4.5000000000000009 0.81450000000000011 0.81450000000000011 -0.85421994577343296 -0.093712536028911983 7473.3774999999996 5513.7912500000011 1.4774781842735376 0.38100000000000006 1.0000000180025095e-35 0.077763092193915653 0.13450000000000004 -0.022105324434383348 3.4292234347566417 11443.154166666669 -1.2536249999999993 0.24600000000000002 4.1966552054990114 2.0810980363097227 0.076932245706304067 21916.047500000004 5.5000000000000009 3.3690517423699506 13733.595000000003 5256.7287500000011 35443.661250000005 0.075531825435107544 1.0000000180025095e-35 1.0000000180025095e-35 0.78574730703237883 6.5000000000000009 1.0000000180025095e-35 -0.25663430037177332 5883.6291666666666 0.20035801815818652 3.7410949783440794 5.5000000000000009 5.2445322152766964 -0.30707196029776668 2.5000000000000004 2.5000000000000004 9.5000000000000018 1.0000000180025095e-35 -0.057325622219065502
decision_type=2 2 2 2 2 8 2 2 2 2 2 8 2 2 2 2 2 2 2 2 2 2 2 2 2 2 2 2 2 2 2 2 2 2 2 2 2 2 2 2 2 2 2 2 2 2 2 2 2 2 2 2 2 2 2 2 2 2 2 2 2 10
left_child=3 2 6 24 5 13 18 -7 41 10 17 -10 37 34 15 -15 43 45 19 -2 21 -20 23 -6 -1 -14 27 -23 -26 39 -12 56 58 -11 -5 36 -19 55 -32 -30 -41 -4 -36 -9 -45 -3 53 48 -34 -21 -25 52 -16 -28 -43 -8 -27 -40 -13 -58 -49 -29
right_child=1 9 8 4 22 7 12 16 11 33 30 32 25 14 51 -17 -18 35 20 49 -22 26 -24 50 28 31 46 61 29 -31 38 -33 47 -35 42 -37 -38 -39 57 40 -42 54 -44 44 -46 -47 -48 60 -50 -51 -52 -53 -54 -55 -56 -57 59 -59 -60 -61 -62 -63
leaf_value=-294.61265929002656 200.61076813322214 122.18508216367728 192.38635443929198 -82.338844183594873 -87.164552190308498 -122.14417282119342 292.29484219690426 123.99455922395707 231.46909313606503 841.68452566378232 322.69367985557722 80.463464015089585 579.96548752688625 93.770763541724037 313.89446216740464 313.83411398838587 -155.45452108013103 539.52304889970333 8.2826834535766203 357.12671836277633 43.181599527264339 74.402436680916352 -171.03836242552006 237.41391091857224 -108.49295512986718 -33.398419115665448 548.40700844014032 399.12815202347457 49.327293974331404 -35.667778710561123 155.25926468376102 641.64890318203288 280.34074094031803 1013.878418106328 62.111696879298343 1182.4541358218755 775.68005112948379 172.93634808403806 776.20797414991921 14.435674866845964 534.09930252850609 253.38085102102397 264.58308496985984 434.98656138869273 255.32403722322459 764.86995393006077 184.06557993200772 67.887277506832518 54.218167760098147 760.41359894092807 72.022680854875105 813.6700698671126 756.1584925339024 1527.2715274202865 447.73049865341153 476.0026123892352 406.09303875593815 367.25294708408848 -73.161122212543845 351.59018090163437 -55.999264420667984 210.48219752655868
leaf_weight=67803 985 147 421 717 4541 5124 617 555 112 562 623 527 120 1439 445 1037 422 267 643 544 1038 557 11038 92 9532 56 158 404 108 592 1061 865 344 899 276 533 561 234 57 42 113 105 198 43 1007 278 99 1975 314 138 1801 157 151 82 117 50 771 298 2570 224 736 56
leaf_count=67803 985 147 421 717 4541 5124 617 555 112 562 623 527 120 1439 445 1037 422 267 643 544 1038 557 11038 92 9532 56 158 404 108 592 1061 865 344 899 276 533 561 234 57 42 113 105 198 43 1007 278 99 1975 314 138 1801 157 151 82 117 50 771 298 2570 224 736 56
internal_value=-0.000886052 0.014536 0.00987 -0.00378371 -0.000122509 0.00377962 0.016128 4.95021e-05 0.00324803 0.0276549 0.024102 0.00160717 0.0231726 0.00981448 0.012786 0.00950888 0.0088002 0.0329698 0.0117296 0.0173953 0.00861969 0.0123992 -0.00270673 -7.83353e-05 -0.00514363 0.0275363 0.0178938 0.014118 -0.00275941 0.00501754 0.0163345 0.0261921 0.000959479 0.0369569 0.00175818 0.0368508 0.0324058 0.0133119 0.0128559 0.0188669 0.0288387 0.0200342 0.00906329 0.0122056 0.0156571 0.0205412 0.0292212 0.00368833 0.010231 0.0275191 0.00547385 0.0235618 0.0201745 0.03575 0.0304865 0.0172084 0.0214025 0.0218873 -0.00200904 0.0226432 0.00210033 0.0276522
internal_weight=127381 20148 14862 107233 29043 11571 7641 7151 7221 5286 3825 6578 2937 4420 3229 2476 2027 1786 4704 1667 3037 1999 17472 6434 78190 2036 1356 1017 10387 855 2039 1916 6466 1461 1191 1361 828 901 1416 263 155 643 474 1605 1050 425 339 3369 658 682 1893 753 596 240 222 667 1051 355 3097 995 2711 460
internal_count=127381 20148 14862 107233 29043 11571 7641 7151 7221 5286 3825 6578 2937 4420 3229 2476 2027 1786 4704 1667 3037 1999 17472 6434 78190 2036 1356 1017 10387 855 2039 1916 6466 1461 1191 1361 828 901 1416 263 155 643 474 1605 1050 425 339 3369 658 682 1893 753 596 240 222 667 1051 355 3097 995 2711 460
is_linear=0
shrinkage=0.06


Tree=5
num_leaves=63
num_cat=0
split_feature=0 1 5 14 21 20 25 0 23 20 21 8 20 25 20 1 13 20 8 21 14 26 0 0 20 18 12 14 18 22 21 16 13 14 16 0 8 5 0 5 13 1 3 5 24 16 3 21 7 1 5 1 14 13 5 20 1 20 19 17 6 24
split_gain=1359.41 191.968 169.821 153.719 77.2233 64.5518 66.2766 64.311 60.8521 50.3676 39.6876 29.8859 28.2224 28.0678 28.2493 26.6547 24.3298 23.8427 23.6838 25.2084 23.325 22.3327 22.2359 22.128 24.5174 24.2381 20.0239 18.5731 17.8519 14.2229 13.3693 12.6216 12.0807 12.058 15.1873 11.443 11.963 11.2052 11.1956 11.1627 11.1567 11.0642 10.4493 10.1896 12.3287 10.1358 9.8588 9.80453 9.51521 8.32122 7.72149 7.71518 7.5343 7.27677 7.15546 7.05155 7.04619 11.8756 8.46144 6.68529 12.682 10.2487
threshold=10378.450000000003 17220.071875000005 26498.345000000005 0.1340965771111923 0.29696027566504685 -0.46472317204376817 1.0000000180025095e-35 13368.620000000004 1.0000000180025095e-35 -0.95297903005573326 0.40966402954315184 0.24809009674297802 0.35460488704253579 1.0000000180025095e-35 0.40966402954315223 6514.6625000000004 1.5380193565205802 -0.95297903005573326 -0.29607662832038695 0.70581670320594814 -0.1537341363521483 1.0000000180025095e-35 7339.6675000000014 5320.3000000000002 -0.70581670320594825 0.38100000000000006 -0.11089906700593725 -0.17797284017772272 0.46700000000000003 1.0000000180025095e-35 0.29696027566504685 -0.0026575329922772779 3.3690517423699506 0.1340965771111923 -0.064245530952161276 8369.5225000000009 -0.40540799556237261 40431.626250000008 23532.828750000004 36365.607500000006 2.4068524004200618 5438.4756250000009 3803.0045651367209 67754.92750000002 1.0000000180025095e-35 0.023149734681519266 1883.4000234298185 0.8542199457734333 0.16756131786444686 18153.606250000004 40876.296250000007 9342.0468750000018 -0.08186790947852525 3.6893017967111423 34848.896250000013 0.70581670320594825 11783.1625 0.17992617227144039 1.2085000000000001 19.163625000000007 3022.0926696515057 1.0000000180025095e-35
decision_type=2 2 2 2 2 2 2 2 2 2 2 8 2 2 2 2 2 2 8 2 2 2 2 2 2 2 2 2 2 2 2 2 2 2 2 2 8 2 2 2 2 2 2 2 2 2 2 2 2 2 2 2 2 2 2 2 2 2 2 2 2 2
left_child=2 3 23 7 5 15 51 13 10 50 33 42 -8 17 26 21 -9 -2 -11 56 22 -4 -6 59 25 32 -15 -19 29 40 -13 -12 -25 -3 -35 -22 -37 -24 -33 -17 -18 -14 -10 44 47 -32 -23 -42 -41 -36 -5 -7 -53 -39 -43 -38 -20 58 -58 -1 -61 -62
right_child=1 8 4 9 20 6 12 16 11 18 31 30 41 14 -16 39 28 27 19 -21 35 46 37 24 -26 -27 -28 -29 -30 -31 45 38 -34 34 49 36 55 53 -40 48 43 54 -44 -45 -46 -47 -48 -49 -50 -51 -52 52 -54 -55 -56 -57 57 -59 -60 60 61 -63
leaf_value=-293.7274915294999 682.02371533388293 684.16141646237156 58.085387669009826 252.12396167514598 -39.682961171500878 -135.70368677154457 -167.80543456956531 479.78407842710322 592.99193472344416 212.45028730685382 329.18098527818978 435.03524426994835 115.46833269715279 259.22751982206586 417.61952788724005 205.45735708041786 202.74864198062073 289.32046381970605 143.19661456472758 -7.0191572967968874 -192.27894841133462 121.55792959361031 70.76823062107313 20.985317493279513 -122.03151496699992 -57.196185341352894 165.51181409563679 85.104508088144286 336.35851216534064 50.810072895738756 754.31954810322156 120.09488310225912 236.21613005491383 1384.6492436082324 103.2512630069336 224.41386873017882 -46.274774623883701 168.48746445723643 701.01704085315816 634.94125510451147 736.74224931076606 177.59542032695987 1148.6229786449483 493.66917077653437 334.16255467994398 771.28063489494832 443.40100505728265 383.85886060627587 273.79799506191603 514.06979613693477 864.3942938964052 230.02632884497345 -12.621257034958251 333.74161705534493 310.03582074732088 121.10961676658961 155.94048520709939 275.12008589859573 473.55530216819284 -250.71836234442065 -65.66869473129681 244.67303053566647
leaf_weight=61470 124 509 1935 121 2782 5161 505 227 45 44 450 341 655 503 901 1081 196 230 1367 3617 10226 281 989 339 9634 1475 724 1922 331 96 437 862 482 103 163 64 3670 232 327 488 788 461 596 219 125 190 527 142 489 389 208 152 474 165 781 434 1038 265 171 3257 1300 316
leaf_count=61470 124 509 1935 121 2782 5161 505 227 45 44 450 341 655 503 901 1081 196 230 1367 3617 10226 281 989 339 9634 1475 724 1922 331 96 437 862 482 103 163 64 3670 232 327 488 788 461 596 219 125 190 527 142 489 389 208 152 474 165 781 434 1038 265 171 3257 1300 316
internal_value=-0.00105032 0.0143455 -0.00354154 0.0107617 0.000174568 0.00372286 0.000484307 0.0173456 0.0251967 0.00446992 0.019858 0.0344972 0.00886261 0.0132098 0.0181635 0.00924682 0.0259209 0.00857821 0.00331098 0.00301208 -0.00230859 0.00537441 0.00164395 -0.00503952 -0.00266052 0.00291115 0.0122396 0.00710409 0.0236995 0.0263755 0.027843 0.0138414 0.0111742 0.0283299 0.0229466 -0.00345311 -0.000803264 0.00785281 0.0106022 0.0144082 0.0278367 0.0122182 0.044546 0.029887 0.0323318 0.0330431 0.0137525 0.0347097 0.0190563 0.019 0.0273739 -0.00299326 0.00329712 0.0163678 0.0155459 -0.00120468 0.00724181 0.0101194 0.00759801 -0.00546732 -0.00332814 0.00101733
internal_weight=127596 17771 109825 13359 31552 12990 8189 6528 4412 6831 2803 1609 2402 4404 2128 4801 2124 2276 6502 6458 18562 2743 4168 78273 11930 2296 1227 2152 1897 1566 968 1639 821 1164 655 14394 4168 1386 1189 2058 1470 1897 641 1274 1055 627 808 930 977 552 329 5787 626 397 1242 4104 2841 1474 1209 66343 4873 1616
internal_count=127596 17771 109825 13359 31552 12990 8189 6528 4412 6831 2803 1609 2402 4404 2128 4801 2124 2276 6502 6458 18562 2743 4168 78273 11930 2296 1227 2152 1897 1566 968 1639 821 1164 655 14394 4168 1386 1189 2058 1470 1897 641 1274 1055 627 808 930 977 552 329 5787 626 397 1242 4104 2841 1474 1209 66343 4873 1616
is_linear=0
shrinkage=0.06


Tree=6
num_leaves=63
num_cat=0
split_feature=0 2 5 21 11 21 20 2 21 19 14 5 0 11 28 20 21 20 20 11 1 26 7 20 2 28 18 2 21 20 11 15 14 16 5 18 21 16 14 28 24 26 18 11 9 5 11 5 13 2 1 28 15 11 1 14 18 28 5 9 9 15
split_gain=1139.35 240.561 117.504 114.746 72.4777 64.0739 53.5277 45.4218 44.6902 41.1335 29.5003 28.7771 25.3352 21.3342 19.8119 22.0985 19.0414 18.9187 18.7724 18.3851 17.8979 17.5361 16.0072 14.7478 24.1462 15.2215 24.7791 14.6825 14.1856 14.1588 18.1739 13.4695 13.2666 12.1241 12.0254 11.795 14.4988 11.5718 12.3287 17.7589 10.6931 10.8656 10.497 10.3557 16.5194 10.0099 9.95574 9.83655 9.6432 9.56149 9.50039 9.47509 9.68082 9.97564 8.91312 8.86267 8.78161 19.7604 9.3144 8.84003 10.5468 8.30128
threshold=9395.7687500000011 14911.387500000003 29203.888750000002 0.61559370248597578 0.84625000000000006 0.23931566428755774 0.35460488704253579 10473.66666666667 0.70581670320594814 0.38100000000000006 -0.18000464274912212 50136.161250000012 6184.326250000001 0.9154500000000001 4.5000000000000009 -0.85421994577343319 -0.88545602565320969 -0.85421994577343319 0.17992617227144039 0.70555000000000012 7006.1650000000009 1.0000000180025095e-35 0.14623088473800608 -0.51639395938746191 4258.6495833333347 6.5000000000000009 0.38100000000000006 18799.022500000003 1.0000000180025095e-35 0.40966402954315223 0.70215000000000016 0.12725878061176038 0.08338355261242035 0.0028503863919968624 48925.120000000003 0.91400000000000003 -0.91023613416931226 -0.047597743378723238 0.095479363861602592 2.5000000000000004 1.0000000180025095e-35 1.0000000180025095e-35 0.013500000000000002 0.49405000000000004 0.50908591444574836 17656.623750000002 0.18595000000000003 54284.651250000003 1.4311250167538543 11697.317500000003 9246.6206250000014 4.5000000000000009 0.076932245706304067 0.22665000000000005 11955.839375000001 0.16788365339202968 0.91400000000000003 4.5000000000000009 50136.161250000012 0.42109784887557561 0.58771132718713026 0.18067523858914009
decision_type=2 2 2 2 2 2 2 2 2 2 2 2 2 2 2 2 2 2 2 2 2 2 2 2 2 2 2 2 2 2 2 2 2 2 2 2 2 2 2 2 2 2 2 2 2 2 2 2 2 2 2 2 2 2 2 2 2 2 2 2 2 2
left_child=2 3 12 7 8 9 -6 14 31 11 54 46 23 49 15 -2 -9 -14 27 48 21 -11 -15 24 -1 -26 40 -10 -8 -7 50 37 -21 -30 -17 36 -16 47 -39 -40 41 -27 -19 -38 -45 -43 -4 -3 -18 -12 -31 -22 -53 -54 -5 -13 58 -58 -50 -60 -61 -23
right_child=1 4 5 10 6 29 28 16 18 20 13 55 17 22 35 34 19 42 -20 32 51 61 -24 -25 25 26 -28 -29 33 30 -32 -33 -34 -35 -36 -37 43 38 39 -41 -42 45 -44 44 -46 -47 -48 -49 56 -51 -52 52 53 -55 -56 -57 57 -59 59 60 -62 -63
leaf_value=-195.22442111563163 341.44745321476847 235.78895325291853 90.53201189039082 158.04789630601678 1040.0670563597705 -151.7024087646322 295.85154285477068 239.45459177142183 108.32803079729726 92.483568490288704 -35.769941381481779 240.01829222853766 74.056705270402119 208.13200701773079 -66.849410674967658 95.088700611227594 538.27467914611941 173.06892141654279 411.13521591164778 69.67677312092043 165.06908358443718 267.6777956023094 22.569801629970932 -276.52143969397991 -90.991540684903612 58.356112215371439 -217.44196150155938 322.68775635436054 755.20221360387313 42.404203873146358 -160.50802547159833 -39.504143199788423 357.27855227523668 174.38757878530413 294.70288972007819 -32.722497793137258 204.31100283048113 581.06325813281569 774.81907855606221 350.09395814950182 334.34095994570009 -81.097968968442871 -100.99396026831849 204.49775917691736 989.83478025206841 379.52485387232042 -95.515325659979524 895.06755856752056 260.6001600825345 56.027523451579668 175.65029790812437 175.96372065242153 381.45356949444727 648.00897820066598 337.50582672724801 -316.16212750983971 562.78029011154615 59.5140865030436 618.67339527303056 451.39033149032349 1501.1853416554243 701.04849866393909
leaf_weight=16402 491 56 910 475 789 8830 276 951 1347 1343 3834 966 1139 103 446 645 90 339 592 348 301 352 80 55754 1647 722 600 840 248 2368 1537 63 158 57 309 806 1154 847 156 762 160 45 7725 179 112 134 3498 282 1267 2758 277 253 134 206 131 164 101 214 351 358 48 183
leaf_count=16402 491 56 910 475 789 8830 276 951 1347 1343 3834 966 1139 103 446 645 90 339 592 348 301 352 80 55754 1647 722 600 840 248 2368 1537 63 158 57 309 806 1154 847 156 762 160 45 7725 179 112 134 3498 282 1267 2758 277 253 134 206 131 164 101 214 351 358 48 183
internal_value=-0.00126391 0.0112537 -0.00382959 0.00721176 0.0211164 0.000151391 0.0333285 0.0121764 0.0177331 0.00426715 0.00181195 0.00128061 -0.00483213 0.000677489 0.00780492 0.013474 0.0168358 -0.00186005 0.0126974 0.0192266 0.0102338 0.00690735 0.0208852 -0.00519458 -0.00378387 0.000892381 0.00494521 0.0101317 0.0195077 -0.0024771 0.000398851 0.0241939 0.00882213 0.0284262 0.00815094 0.00476752 0.00735801 0.0250128 0.0230652 0.0182484 0.0104562 0.00791787 -0.00288244 0.0102768 0.0203918 0.0211508 -0.000909257 0.0351834 0.021394 0.000116503 0.00341399 0.0172215 0.0216223 0.0282353 0.014495 0.00982301 0.0206524 0.0113333 0.0221028 0.0273686 0.0213399 0.0160935
internal_weight=127713 21724 105989 15409 6315 21322 1370 8028 4945 8310 7381 5538 84667 6775 4142 1445 3886 9203 2779 2935 2772 1878 183 75464 19710 3308 1661 2187 581 13012 4182 2166 506 305 954 2697 1891 2103 1765 918 1061 901 8064 1445 291 179 4408 338 2429 6592 2645 894 593 340 606 1130 2339 315 2024 757 406 535
internal_count=127713 21724 105989 15409 6315 21322 1370 8028 4945 8310 7381 5538 84667 6775 4142 1445 3886 9203 2779 2935 2772 1878 183 75464 19710 3308 1661 2187 581 13012 4182 2166 506 305 954 2697 1891 2103 1765 918 1061 901 8064 1445 291 179 4408 338 2429 6592 2645 894 593 340 606 1130 2339 315 2024 757 406 535
is_linear=0
shrinkage=0.06


Tree=7
num_leaves=63
num_cat=0
split_feature=0 2 5 14 11 20 20 0 18 28 25 20 4 20 25 20 28 13 11 0 20 18 1 28 1 16 18 28 14 1 26 0 28 28 13 20 5 2 14 28 4 15 16 11 0 28 19 12 11 28 19 19 20 26 8 19 2 6 0 14 14 5
split_gain=999.246 206.48 108.193 78.048 54.067 55.3332 51.0533 44.8506 37.8032 35.5608 34.5333 33.7003 31.6916 29.1299 61.5111 23.9593 21.6549 20.0105 22.6663 19.1785 20.6981 25.5809 18.0474 20.7191 17.5405 16.3207 15.6448 27.4646 15.3576 14.5561 14.9078 13.8689 13.2629 13.2466 15.2768 12.9818 12.3553 11.7702 11.3052 11.2713 11.1897 11.1379 11.0983 10.6687 9.89296 9.57501 13.3893 9.00183 8.84585 10.8085 8.66056 8.62573 8.65061 8.6233 8.23787 8.05352 7.99055 7.83996 7.33155 7.32 6.99824 6.93621
threshold=9395.7687500000011 16673.556666666671 25880.657500000005 0.19412089738887536 0.79925000000000013 0.35460488704253579 -0.78574730703237861 11315.101250000002 0.81450000000000011 3.5000000000000004 1.0000000180025095e-35 0.46472317204376884 1084.7664285714291 0.35460488704253579 1.0000000180025095e-35 -0.91023613416931226 7.5000000000000009 4.7612757027318215 0.82865000000000011 4734.2225000000008 -0.70581670320594825 0.56700000000000006 4630.8900000000003 4.5000000000000009 12461.975625000003 0.038197341356057131 0.0080000000000000019 8.5000000000000018 -0.0096303273924565735 6514.6625000000004 1.0000000180025095e-35 16726.168750000004 3.5000000000000004 4.5000000000000009 3.1162252491652835 -0.91023613416931226 63785.762500000004 9840.313750000003 -0.14744648807536662 7.5000000000000009 168.09095238095253 0.18067523858914009 -0.036313115122421684 0.87735000000000007 7271.6575000000003 5.5000000000000009 0.16000000000000003 0.052770815928710697 0.16175000000000003 3.5000000000000004 0.14250000000000004 1.1720000000000002 -0.060268340127661565 1.0000000180025095e-35 -0.01972624739510059 0.16000000000000003 11697.317500000003 8082.9698647499181 6682.0025000000014 -0.16959458292525922 -0.18705553554734375 55774.375000000007
decision_type=2 2 2 2 2 2 2 2 2 2 2 2 2 2 2 2 2 2 2 2 2 2 2 2 2 2 2 2 2 2 2 2 2 2 2 2 2 2 2 2 2 2 2 2 2 2 2 2 2 2 2 2 2 2 8 2 2 2 2 2 2 2
left_child=2 3 19 7 28 -6 8 25 29 12 26 37 51 15 43 16 -9 -17 -19 -1 21 33 -13 55 45 59 27 -8 54 30 -4 -30 40 -21 -35 39 -7 -12 44 -11 -33 -32 -34 60 -28 46 -16 -44 -31 -50 -46 52 -5 -36 -3 -24 -37 -47 -29 -2 -15 -56
right_child=1 4 6 9 5 36 10 13 -10 35 11 22 -14 14 24 17 -18 18 -20 20 -22 -23 23 -25 -26 -27 38 58 31 48 41 32 42 34 53 56 -38 -39 -40 -41 -42 -43 47 -45 50 57 -48 -49 49 -51 -52 -53 -54 -55 61 -57 -58 -59 -60 -61 -62 -63
leaf_value=-269.80495799984118 175.46082338293505 684.47159168598944 89.513346140150134 41.12979604651315 987.46508035673241 278.20038792951624 -73.448436780472278 615.28876248883694 -54.862815124666049 438.37510633005309 -169.79402255872253 30.368744576611277 375.349806422673 376.38063344513301 565.24180320269079 135.14226476521438 246.71530467996232 93.104817993802286 650.03994276766218 -19.736758307564177 -123.39533964745475 -110.70211180263796 220.27037238070344 261.76791976828815 581.85633583926494 262.36039244104154 -91.890537924251774 314.27765550762768 142.05642947790724 181.88216323840743 227.66164534594787 390.45419505525246 1255.8408223279228 11.940277574808047 166.62302235001476 -61.410350717140339 723.26717147981265 59.978137013527117 -157.0668088822739 65.15032662282502 898.86123569782308 615.29583490595951 427.46964465980415 246.72410565458594 521.07015708746565 425.85794661006395 105.02082104665608 222.01752881263971 139.78460985505802 340.76558970664462 46.125523964569425 213.25932725257144 265.02196876443554 333.63773854527608 233.75901223354379 5.0379598629225359 54.82803919614512 322.92526597334808 923.15355460166313 81.410499301615673 73.044826149865685 500.7834901999052
leaf_weight=60107 582 180 1445 1095 797 402 342 399 1877 202 2630 1241 487 118 41 2063 291 134 107 455 12660 1731 79 1046 829 992 2863 114 489 230 349 193 73 328 486 3090 229 1134 13843 241 203 196 341 43 70 181 261 788 177 557 948 166 68 107 272 616 1828 160 52 3116 872 459
leaf_count=60107 582 180 1445 1095 797 402 342 399 1877 202 2630 1241 487 118 41 2063 291 134 107 455 12660 1731 79 1046 829 992 2863 114 489 230 349 193 73 328 486 3090 229 1134 13843 241 203 196 341 43 70 181 261 788 177 557 948 166 68 107 272 616 1828 160 52 3116 872 459
internal_value=-0.00135486 0.0103436 -0.0037671 0.00739514 0.0219123 0.031521 -0.000704285 0.010771 0.00494183 0.00260248 -0.0017963 0.00187133 0.00985903 0.0144474 0.0192216 0.0104529 0.0202609 0.00751562 0.0238755 -0.0049704 -0.00310788 0.00128033 0.00663581 0.0105767 0.0270978 0.00646055 -0.00315336 0.00722835 0.0173356 0.00917265 0.0062412 0.0144983 0.017204 0.00738663 0.0115244 0.000144375 0.0182472 -0.0019033 -0.00345092 0.00998194 0.0267273 0.0146972 0.0140666 0.00799806 -0.000589025 0.019661 0.0118808 0.0126005 0.0152241 0.0184414 0.00449116 0.00506095 0.00323474 0.0172715 0.0238353 0.00254676 -0.000741766 0.0265513 0.027253 0.00462736 0.00672727 0.0210041
internal_weight=127475 21792 105683 17366 4426 1428 29809 10189 4831 7177 24978 6746 1816 5499 2505 2994 690 2304 241 75874 15767 3107 2982 1741 1472 4690 18232 508 2998 2954 1990 2087 1598 1376 921 5361 631 3764 17724 443 396 545 1202 1033 3881 643 302 1129 964 734 1018 1329 1163 593 911 695 4918 341 166 3698 990 731
internal_count=127475 21792 105683 17366 4426 1428 29809 10189 4831 7177 24978 6746 1816 5499 2505 2994 690 2304 241 75874 15767 3107 2982 1741 1472 4690 18232 508 2998 2954 1990 2087 1598 1376 921 5361 631 3764 17724 443 396 545 1202 1033 3881 643 302 1129 964 734 1018 1329 1163 593 911 695 4918 341 166 3698 990 731
is_linear=0
shrinkage=0.06


Tree=8
num_leaves=63
num_cat=0
split_feature=0 0 5 21 11 21 20 25 14 1 28 20 0 21 12 8 20 25 19 17 28 14 28 8 8 14 20 1 28 18 28 1 18 28 1 8 13 28 18 0 11 28 24 18 18 13 15 16 21 0 21 9 11 28 4 14 19 19 16 21 12 25
split_gain=882.309 163.154 100.739 89.0988 57.0978 51.3282 56.8053 52.0834 44.4003 39.1612 38.1268 35.2724 24.6969 24.1595 24.1074 20.5947 19.4198 19.1648 18.0982 15.6391 18.0327 15.2517 14.8271 13.7586 13.7495 13.176 12.413 18.5083 12.364 14.6855 16.0355 12.1795 11.7579 13.6942 11.2535 10.8351 13.0301 11.8584 10.3115 10.2234 10.0153 17.5381 11.0955 10.4558 9.67211 9.52002 9.42281 9.30391 9.22634 9.19065 8.81244 9.36416 8.78652 10.5564 8.76347 8.58818 8.44386 8.00303 7.8125 7.79117 7.77277 9.86179
threshold=9395.7687500000011 17161.778750000001 23170.258750000005 0.5163939593874618 0.84345000000000014 0.23931566428755774 -0.35460488704253573 1.0000000180025095e-35 -0.14574608480479731 11149.393125000002 4.5000000000000009 0.17992617227144039 5669.1212500000011 -0.78574730703237872 0.10882591378520313 -0.26799859939171206 0.35460488704253579 1.0000000180025095e-35 1.1720000000000002 21.803875000000005 6.5000000000000009 -0.20214236589570281 5.5000000000000009 -0.085993105579465309 -0.0029506795335929033 0.37074239961449923 -0.70581670320594825 3335.9443750000005 3.5000000000000004 0.38100000000000006 7.5000000000000009 13111.083125000003 0.38100000000000006 5.5000000000000009 6838.8456250000017 0.20797881264725329 4.5876007925971178 6.5000000000000009 0.46700000000000003 8040.3200000000006 0.21945000000000003 7.5000000000000009 1.0000000180025095e-35 0.054500000000000007 0.56700000000000006 4.1761188071395079 0.23111543054885572 -0.050599447121416501 0.29696027566504685 11834.616250000005 1.0000000180025095e-35 0.54476991456401946 0.16465000000000005 5.5000000000000009 1211.2210714285716 -0.061553140185103022 0.81450000000000011 0.81450000000000011 0.0028503863919968624 1.0000000180025095e-35 0.15107307268365425 1.0000000180025095e-35
decision_type=2 2 2 2 2 2 2 2 2 2 2 2 2 2 2 8 2 2 2 2 2 2 2 10 10 2 2 2 2 2 2 2 2 2 2 8 2 2 2 2 2 2 2 2 2 2 2 2 2 2 2 2 2 2 2 2 2 2 2 2 2 2
left_child=2 3 26 9 10 6 12 -8 22 35 18 56 19 -11 50 38 -9 23 54 46 -21 34 -5 -15 52 31 27 -1 -14 40 -31 -17 33 -29 -7 36 37 -2 -10 -23 42 57 -30 -43 -39 -22 -4 -16 -13 -24 -12 -52 -19 -54 -3 -33 -6 -42 -50 -55 61 -37
right_child=1 4 5 8 11 21 7 16 15 13 14 48 28 17 47 25 -18 24 -20 20 45 39 49 -25 -26 -27 -28 32 29 30 -32 55 -34 -35 -36 60 -38 44 -40 -41 41 43 -44 -45 -46 -47 -48 -49 58 -51 51 -53 53 59 -56 -57 -58 -59 -60 -61 -62 -63
leaf_value=-195.4722302223656 223.16969635202986 415.75869060279467 -51.607228380960798 126.61898749648941 776.81915600726927 -71.32824036235742 -129.94026284700027 -186.6339380051927 181.60985505210112 243.00098107037826 559.76517952763231 332.05381096960451 87.256455471632819 128.8856888730331 1210.1399639148308 1.5173422450392331 177.31157975807039 821.06355576511373 812.92723347740002 38.398184267890471 254.60264975986505 -172.76003644911884 193.98678471655731 528.35914427423847 323.77894813816818 -57.621614869556495 -249.10573684963128 -65.304002893008402 177.51493639134799 225.99486761346034 -75.171350299287923 258.0757438539257 -107.25257153176517 114.06041487223548 78.977144460335083 93.859993321016375 865.24548224025023 404.60006636790581 65.189738299840499 -23.840333702416316 49.281293645429315 535.75471378886482 400.86471246837829 315.1383467280495 -28.2956378414091 599.88480147028076 223.51329493903663 117.52326303991069 681.21455449439964 345.63668085795445 107.30935059930441 651.47337256216269 213.73721909805764 499.33162914254643 606.19651113451812 68.588593654807639 1146.2206130353286 215.55582568099561 484.5156571158721 261.88824815199695 -5.4552573899215879 224.36119537138876
leaf_weight=8535 587 614 2167 662 436 2068 7625 453 80 1439 366 240 703 633 65 3013 1797 244 164 532 412 15718 456 391 594 2599 53640 948 491 338 414 267 2044 1353 1200 1017 90 120 59 3815 207 228 114 224 393 102 248 1237 256 291 256 170 304 316 264 2047 200 157 64 96 688 882
leaf_count=8535 587 614 2167 662 436 2068 7625 453 80 1439 366 240 703 633 65 3013 1797 244 164 532 412 15718 456 391 594 2599 53640 948 491 338 414 267 2044 1353 1200 1017 90 120 59 3815 207 228 114 224 393 102 248 1237 256 291 256 170 304 316 264 2047 200 157 64 96 688 882
internal_value=-0.00149008 0.00955833 -0.00375142 0.00694649 0.0199695 -0.00133079 0.00125018 -0.00159494 0.00303736 0.0116982 0.0157156 0.0311237 0.00568376 0.0158223 0.0110487 0.00132052 0.00642667 0.0192987 0.025094 0.00226928 0.0083977 -0.00316592 0.0128644 0.0129258 0.0234981 0.000918999 -0.00517108 -0.00349845 0.00979277 0.0120304 0.00525 0.00262774 -0.000310703 0.00263103 0.000627906 0.00731215 0.0120504 0.0102545 0.0242158 -0.00380065 0.0156186 0.0199559 0.00976859 0.0278496 0.00359064 0.0164124 -0.000385095 0.00602765 0.0201429 0.0186586 0.019303 0.0134366 0.0279375 0.0245866 0.0216765 0.00590147 0.0407925 0.0101538 0.0268125 0.0308447 0.00513258 0.00711216
internal_weight=127133 21600 105533 17268 4332 39013 16212 9875 9474 7794 3136 1196 6337 4017 2094 8065 2250 2578 1042 3461 1046 22801 1409 1024 1554 7926 66520 12880 2876 2173 752 5327 4345 2301 3268 3777 1190 1100 139 19533 1421 816 605 452 513 514 2415 1302 560 747 792 426 960 716 878 2314 636 364 320 412 2587 1899
internal_count=127133 21600 105533 17268 4332 39013 16212 9875 9474 7794 3136 1196 6337 4017 2094 8065 2250 2578 1042 3461 1046 22801 1409 1024 1554 7926 66520 12880 2876 2173 752 5327 4345 2301 3268 3777 1190 1100 139 19533 1421 816 605 452 513 514 2415 1302 560 747 792 426 960 716 878 2314 636 364 320 412 2587 1899
is_linear=0
shrinkage=0.06


Tree=9
num_leaves=63
num_cat=0
split_feature=0 2 5 21 11 21 14 21 20 2 2 8 18 28 19 16 25 21 20 24 26 5 14 2 14 2 28 13 28 20 9 20 26 5 15 11 15 28 5 9 13 5 11 16 12 28 13 0 11 11 15 17 26 12 8 15 2 28 20 21 2 8
split_gain=783.532 176.229 77.4003 71.0031 65.78 53.427 45.509 32.1066 28.3235 35.2313 28.115 24.6533 21.0291 20.4546 17.0301 16.8391 20.7798 15.9835 15.3993 14.8079 15.472 14.5802 13.6211 12.8123 12.8032 15.9204 13.7494 12.5611 11.5561 13.2342 11.5225 11.647 11.0084 10.8819 10.8244 10.4491 9.86702 10.1982 9.57154 9.28252 8.93569 8.69333 8.59365 12.0316 9.2433 21.9259 8.29139 10.7059 8.25491 8.04447 8.01812 7.77936 7.51223 7.37695 7.12704 7.01878 8.37283 6.84399 15.6164 7.86963 6.63691 7.68175
threshold=8369.5225000000009 13281.97916666667 33995.748750000006 0.61559370248597578 0.84625000000000006 0.70581670320594814 0.032185358278244626 0.29696027566504685 -0.70581670320594825 3502.9225000000006 9207.0262500000008 -0.29607662832038695 0.81450000000000011 3.5000000000000004 0.29450000000000004 0.042306020843122079 1.0000000180025095e-35 -0.88545602565320969 -0.1799261722714405 1.0000000180025095e-35 1.0000000180025095e-35 51480.741250000006 -0.16079289588220394 7096.4204166666668 -0.18705553554734375 19711.651250000006 5.5000000000000009 2.3207606142616553 6.5000000000000009 -0.85421994577343319 0.58771132718713026 -0.85421994577343319 1.0000000180025095e-35 26373.976250000003 0.089785518666873551 0.70555000000000012 0.16733130809276089 5.5000000000000009 17571.157500000005 0.43025727648187545 1.8406125381177942 47053.17500000001 0.71525000000000005 -0.050599447121416501 0.080123456790123462 3.5000000000000004 3.808684154697294 5606.1525000000011 0.87155000000000016 0.79925000000000013 0.054438584414447974 41.769875000000013 1.0000000180025095e-35 0.091168831168831135 0.14299784076083613 0.073737854920365928 4345.6704166666677 8.5000000000000018 0.91023613416931248 -0.29696027566504651 11697.317500000003 0.065859472926773979
decision_type=2 2 2 2 2 2 2 2 2 2 2 8 2 2 2 2 2 2 2 2 2 2 2 2 2 2 2 2 2 2 2 2 2 2 2 2 2 2 2 2 2 2 2 2 2 2 2 2 2 2 2 2 2 2 8 2 2 2 2 2 2 8
left_child=2 3 8 10 5 14 27 15 9 33 28 18 13 -11 34 16 -4 -12 -5 20 -15 35 -13 -10 26 52 -7 -6 29 32 39 -32 -2 -1 -3 -19 -35 -38 -22 -23 -39 -31 43 -16 -45 -46 47 -17 -29 -27 -9 -30 -26 -43 -44 56 -21 59 -59 -18 -24 -62
right_child=1 4 7 11 6 24 -8 50 23 12 17 22 -14 19 42 46 57 21 -20 55 38 30 60 -25 25 49 -28 48 51 41 31 -33 -34 36 -36 -37 37 40 -40 -41 -42 53 54 44 45 -47 -48 -49 -50 -51 -52 -53 -54 -55 -56 -57 -58 58 -60 -61 61 -63
leaf_value=-176.61176508550651 165.11981254969854 385.01683124434021 -76.525549457978101 95.509042164533781 100.20796556371882 143.97357857982217 889.28043494114161 92.369957598896619 -230.18102062245893 -70.342767933959962 129.28539257652963 107.37793478754504 -114.30608129551545 29.685229516169937 611.62053310739111 70.542535269643949 190.67340412775877 194.38686269500545 217.6991941651055 -11.448206371041845 -43.044651574154713 420.19411468583036 -46.886725701420616 -65.815665682629543 115.81919983768894 224.76328266847582 365.67681227620886 328.06957806133897 10.3137205377779 15.243395899696889 916.93379939787485 164.16522701739157 371.25037848651613 -91.666586341162173 -13.998648151032841 60.739852483636426 -88.924868259842739 -75.455899173267326 262.67586760570532 322.91192960769382 457.35746955445728 308.69438231560906 560.36665832450524 477.27940107104814 605.49578174024452 159.56400769382171 529.13012540753914 252.80866627204483 620.89143855156647 793.97184849492203 -115.69019981779326 465.80493769833254 -14.981479042472538 120.51549948461313 35.95743192727717 444.75334565425715 310.56330134024785 116.56643240337904 267.31447875637235 -19.327843905315756 126.68015976285881 -6.0666242380249793
leaf_weight=9663 634 1473 1840 82 246 199 591 392 66334 1095 1004 807 1996 2266 312 726 375 2262 74 127 101 419 5603 5999 2194 755 235 154 2067 965 101 41 183 624 193 588 140 59 415 569 152 161 44 859 115 341 313 678 427 81 6233 46 794 258 123 77 274 206 183 449 425 1336
leaf_count=9663 634 1473 1840 82 246 199 591 392 66334 1095 1004 807 1996 2266 312 726 375 2262 74 127 101 419 5603 5999 2194 755 235 154 2067 965 101 41 183 624 193 588 140 59 415 569 152 161 44 859 115 341 313 678 427 81 6233 46 794 258 123 77 274 206 183 449 425 1336
internal_value=-0.00160818 0.00751743 -0.00403291 0.00401191 0.0142802 0.012098 0.026158 0.000623956 -0.00462699 -0.00242239 0.00761583 -1.22507e-05 0.00111384 0.0034512 0.0176358 0.00437736 0.0017039 0.0106854 0.0236154 0.00583435 0.00415816 0.012392 -0.000463347 -0.00514479 0.00759793 0.00648954 0.0173641 0.0170713 0.00406954 0.00711222 0.0181593 0.0341408 0.0131677 -0.00453356 0.0132677 0.0101053 0.00150769 0.00955555 0.0135349 0.0158623 0.0178863 0.00353757 0.0216923 0.0230227 0.0205095 0.0136053 0.00913104 0.00716239 0.021883 0.0138086 -0.00207849 0.000900141 0.00444177 0.0107542 0.00873054 0.01559 0.012404 0.00780049 0.0143599 0.00470388 -0.00127431 0.00193867
internal_weight=127478 26761 100717 17625 9136 7718 1418 11395 89322 16989 9298 8327 6351 4355 3460 4770 3053 4984 156 3260 2782 3980 8171 72333 4258 3824 434 827 4314 2201 1130 142 817 10638 1666 2850 975 351 516 988 211 1384 1794 1627 1315 456 1717 1404 581 836 6625 2113 2988 419 167 478 401 1213 389 824 7364 1761
internal_count=127478 26761 100717 17625 9136 7718 1418 11395 89322 16989 9298 8327 6351 4355 3460 4770 3053 4984 156 3260 2782 3980 8171 72333 4258 3824 434 827 4314 2201 1130 142 817 10638 1666 2850 975 351 516 988 211 1384 1794 1627 1315 456 1717 1404 581 836 6625 2113 2988 419 167 478 401 1213 389 824 7364 1761
is_linear=0
shrinkage=0.06


Tree=10
num_leaves=63
num_cat=0
split_feature=0 2 5 21 20 20 2 2 25 20 8 18 11 26 28 17 1 14 2 17 28 1 20 28 11 28 28 14 13 19 14 2 2 4 5 18 4 2 28 7 13 28 28 13 28 2 28 1 14 5 9 23 8 20 11 14 28 21 1 26 5 20
split_gain=689.954 141.862 86.3458 75.8851 44.6848 42.5989 37.9678 35.9448 29.5549 33.5862 27.6324 25.9601 23.7256 19.7148 20.061 19.113 18.1572 17.8331 16.5559 16.3923 29.611 15.9668 15.5405 13.0291 11.7026 11.5323 10.9442 11.6473 10.7208 10.7078 10.5273 10.1393 9.62726 9.23375 9.00527 8.93806 8.77024 8.22874 8.20953 8.19036 8.15498 7.92327 7.8916 7.83312 7.16794 7.15886 7.28051 6.93819 6.84431 6.71078 12.7167 8.25733 8.2659 7.75981 7.35312 7.24486 7.12837 6.70899 6.68588 6.57035 6.56442 6.55605
threshold=9060.938750000003 15725.67 20827.535000000003 0.70581670320594814 -0.78574730703237861 -0.78574730703237861 24237.454166666674 10366.63916666667 1.0000000180025095e-35 0.35460488704253579 -0.29607662832038695 0.81450000000000011 0.48755000000000004 1.0000000180025095e-35 4.5000000000000009 -8.4962499999999999 3601.3543750000003 -0.18502421536869854 8086.1199999999999 19.163625000000007 9.5000000000000018 3951.6337500000004 -0.95297903005573326 4.5000000000000009 0.16005000000000003 7.5000000000000009 4.5000000000000009 0.043150767684964633 4.922106744704954 0.16000000000000003 -0.0055257097689056485 11578.759583333336 1171.8562500000003 1297.5769047619051 35443.661250000005 0.27100000000000007 1695.7096428571429 11697.317500000003 4.5000000000000009 0.11938728471767403 1.4774781842735376 5.5000000000000009 7.5000000000000009 5.1900639569887135 8.5000000000000018 5294.9925000000012 6.5000000000000009 4702.0956250000008 0.086266620159054383 58978.520000000004 0.59859493610945169 1.0000000180025095e-35 0.19975992965925862 0.17992617227144039 0.43305000000000005 0.050069042772925711 3.5000000000000004 0.23931566428755774 10499.951875000002 1.0000000180025095e-35 31585.010000000006 -0.61559370248597534
decision_type=2 2 2 2 2 2 2 2 2 2 8 2 2 2 2 2 2 2 2 2 2 2 2 2 2 2 2 2 2 2 2 2 2 2 2 2 2 2 2 2 2 2 2 2 2 2 2 2 2 2 2 2 8 2 2 2 2 2 2 2 2 2
left_child=2 3 61 7 11 12 33 22 18 31 35 13 30 21 -15 -9 -11 41 19 -6 -21 -4 25 29 -20 59 36 39 40 -18 -3 -10 -16 48 -25 -5 -24 -19 -32 -28 -17 -12 -35 57 -33 -13 -47 -36 -7 51 53 55 -53 56 -55 -42 -51 -8 -43 -2 -23 -1
right_child=1 5 4 10 8 6 43 15 9 16 17 45 -14 14 32 28 23 37 24 20 -22 60 26 34 -26 -27 27 -29 -30 -31 38 44 -34 42 47 -37 -38 -39 -40 -41 49 58 -44 -45 -46 46 -48 -49 -50 50 -52 52 -54 54 -56 -57 -58 -59 -60 -61 -62 -63
leaf_value=-136.26161652947332 259.96443597515594 622.46913380452224 -40.888841633412014 204.63724095694752 -164.12196377075099 277.55615798571301 560.61131690611614 134.81133146024419 -151.25433596902016 -76.045734590965537 40.488219142726038 -137.02438883215265 1031.2628893989208 8.1185420525683494 51.795342954125246 410.1945277305287 173.75766047991661 -47.934437774139397 125.47796204395429 -69.171695289930994 360.94072611549973 65.598991589575633 131.91146711757631 93.506471351127601 -32.514616209444554 163.6611787686403 616.69446136161571 -25.441009657872634 428.52118510191377 -19.51715083191468 544.45493495181381 -6.1436721939820966 368.53820825356155 559.7672520756023 69.997350843930803 92.789423556746257 301.1368490223245 28.88443035310225 69.857344849512572 115.68519763247626 260.99171367831815 105.00734502851367 516.76899999038847 578.11879304047375 233.89432054547817 128.15638564367998 -77.826955066969418 243.02296378243517 179.37343602754885 318.0690950830143 900.7637255547105 140.86549411134533 -20.947977072130264 540.74766172882107 326.68993832958131 180.14122137234298 153.56792512159092 755.084940253794 258.80978632403929 678.04076736950424 203.54652246626361 -236.93805858715035
leaf_weight=12908 369 352 1650 84 24942 1632 175 1321 3631 1319 280 2219 251 308 96 156 178 3899 464 708 228 1485 1376 912 4792 305 144 1935 264 919 75 296 524 165 177 49 156 3267 140 771 904 154 124 358 143 310 302 695 1646 108 77 110 290 288 85 888 311 415 200 62 926 44289
leaf_count=12908 369 352 1650 84 24942 1632 175 1321 3631 1319 280 2219 251 308 96 156 178 3899 464 708 228 1485 1376 912 4792 305 144 1935 264 919 75 296 524 165 177 49 156 3267 140 771 904 154 124 358 143 310 302 695 1646 108 77 110 290 288 85 888 311 415 200 62 926 44289
internal_value=-0.00170713 0.00765565 -0.00378608 0.00509057 -0.00188726 0.0162426 0.0139601 0.00858871 -0.00270947 0.000478838 0.000716247 0.00225575 0.0288411 0.00485989 0.01275 0.0123174 0.00424286 0.000253845 -0.00355637 -0.00417992 0.00361538 0.00305688 0.00509027 0.00691218 -0.000486303 0.0131576 0.00373528 0.00153684 0.0146492 0.00176663 0.0220423 -0.00340541 0.0189677 0.0111236 0.0100762 0.0278346 0.00782506 -0.000599499 0.0115814 0.00711475 0.0136954 0.00989905 0.0214048 0.0246329 0.00520729 -0.00233345 0.00341176 0.0144358 0.0102172 0.0130134 0.0174753 0.0112445 0.00345 0.0152121 0.0215067 0.0129844 0.00960859 0.0288814 0.0158644 0.0194756 0.00616922 -0.00535381
internal_weight=127607 23186 104421 17853 47224 5333 4515 9920 39404 8270 7933 7820 818 4989 928 4802 4200 7800 31134 25878 936 4061 5118 2881 5256 736 4382 2850 3481 1097 567 4070 620 3567 1784 133 1532 7166 215 915 3217 634 289 948 439 2831 612 872 3278 3061 869 2192 400 792 373 1792 419 590 354 431 2411 57197
internal_count=127607 23186 104421 17853 47224 5333 4515 9920 39404 8270 7933 7820 818 4989 928 4802 4200 7800 31134 25878 936 4061 5118 2881 5256 736 4382 2850 3481 1097 567 4070 620 3567 1784 133 1532 7166 215 915 3217 634 289 948 439 2831 612 872 3278 3061 869 2192 400 792 373 1792 419 590 354 431 2411 57197
is_linear=0
shrinkage=0.06


Tree=11
num_leaves=63
num_cat=0
split_feature=0 0 14 3 20 11 18 0 28 8 20 25 1 14 19 16 12 28 4 20 7 1 20 20 25 8 18 18 28 17 18 1 25 20 11 23 26 11 8 17 28 0 1 28 20 20 0 28 28 1 19 1 16 28 1 18 28 13 13 19 28 14
split_gain=608.412 112.867 69.1317 56.9851 37.9274 33.9063 32.1048 32.0146 30.786 26.1185 20.0915 27.8099 18.1853 17.3303 16.0692 15.7617 16.376 15.2525 17.4185 13.6926 13.347 12.9982 12.9252 17.5586 32.5243 19.6977 11.4645 11.2338 15.8447 9.76574 9.43567 9.00375 8.44064 17.8432 9.58867 8.27343 8.22161 8.09448 8.69628 8.08343 8.35851 7.64424 7.58872 7.57303 7.48955 7.37246 7.30028 7.20281 7.16661 7.02043 6.92578 6.81182 6.77882 6.66337 6.63371 11.1016 11.5391 8.85835 11.5026 6.6073 15.5846 9.95361
threshold=8369.5225000000009 17161.778750000001 0.23246431361994122 1840.0504263356486 -0.78574730703237861 0.84625000000000006 0.81450000000000011 11503.046250000001 4.5000000000000009 -0.23819499152129456 0.40966402954315223 1.0000000180025095e-35 5038.5350000000008 -0.14377363770200011 1.1720000000000002 -0.050599447121416501 -1.0000000180025095e-35 2.5000000000000004 1084.7664285714291 -0.70581670320594825 0.1719358425038848 2673.7406250000004 -0.98182534576205283 0.35460488704253579 1.0000000180025095e-35 -0.082502979571513244 0.81450000000000011 0.0080000000000000019 7.5000000000000009 16.904625000000014 0.10000000000000002 12901.619375000002 1.0000000180025095e-35 0.46472317204376884 0.70925000000000016 1.0000000180025095e-35 1.0000000180025095e-35 0.15685000000000002 -0.32699874170222276 -17.483499999999996 3.5000000000000004 28731.585000000003 3470.9768750000007 2.5000000000000004 -0.51639395938746191 -0.70581670320594825 21916.047500000004 6.5000000000000009 4.5000000000000009 6838.8456250000017 0.91400000000000003 12461.975625000003 0.014922402695019434 9.5000000000000018 3795.2293750000003 0.38100000000000006 6.5000000000000009 4.2547825122433851 4.6836463314875756 0.14250000000000004 9.5000000000000018 -0.14744648807536662
decision_type=2 2 2 2 2 2 2 2 2 10 2 2 2 2 2 2 2 2 2 2 2 2 2 2 2 8 2 2 2 2 2 2 2 2 2 2 2 2 8 2 2 2 2 2 2 2 2 2 2 2 2 2 2 2 2 2 2 2 2 2 2 2
left_child=3 2 7 12 6 8 20 19 14 41 27 -12 44 39 46 -10 30 18 -4 26 43 -13 53 -24 25 -25 36 28 -6 45 -17 -26 37 -34 -35 -19 -2 52 -39 -9 -41 -7 -22 -5 54 -14 -3 -31 -28 -23 -49 -42 -21 -15 -1 56 -56 -58 -59 60 -29 -62
right_child=1 5 17 4 10 9 -8 13 15 -11 11 21 29 22 -16 16 -18 35 -20 32 42 49 23 24 31 -27 48 59 -30 47 -32 -33 33 34 -36 -37 -38 38 -40 40 51 -43 -44 -45 -46 -47 -48 50 -50 -51 -52 -53 -54 -55 55 -57 57 58 -60 -61 61 -63
leaf_value=-163.15820522544695 150.08693916088669 275.51153926482868 32.845052960915723 8.7205886427230705 -161.33691591817438 406.65998055708934 -99.542935051624312 -51.30807535984227 876.03046233541465 784.06789085530511 -78.792781796847734 -81.456255955188027 27.576188761533739 661.22777960412566 777.80563447656584 766.89770057270778 126.72265157262957 -95.957940926232524 283.31753583207865 90.909867852138532 -19.991473801830917 110.15034585276396 119.07462580303735 186.29480993582175 212.95174375876405 42.034008442412819 142.66443626036346 -122.86062007150306 252.99939237665595 -23.122767101966577 441.87748190111205 477.70947013575329 47.344401714191953 224.19198021954679 -1.7796518178360274 43.638820414863439 761.20646481674487 171.98348488143603 6.8571503016678825 180.90138149421523 221.10832069446107 642.14019402700558 143.21272902387494 317.64194693160823 -247.54989098806104 -92.798671616617 700.0601643343814 142.94284767970697 -58.226405159870737 224.16176345805854 11.369954542962798 342.75306409171344 235.16310750004016 108.55049156265288 -74.779803783300849 -159.10139457562559 47.659511449086573 277.7371271383393 50.371313779067172 -160.46561542431937 651.9199463910204 129.3593118334671
leaf_weight=12899 845 586 880 125 468 570 1822 61 147 485 5958 657 1174 197 168 97 1699 4189 224 629 734 1544 3202 40 488 822 154 904 330 211 186 499 1614 1002 218 1353 153 69 3882 330 238 124 1474 652 43015 10557 314 130 323 502 88 615 218 63 777 1903 547 124 118 13949 63 236
leaf_count=12899 845 586 880 125 468 570 1822 61 147 485 5958 657 1174 197 168 97 1699 4189 224 629 734 1544 3202 40 488 822 154 904 330 211 186 499 1614 1002 218 1353 153 69 3882 330 238 124 1474 652 43015 10557 314 130 323 502 88 615 218 63 777 1903 547 124 118 13949 63 236
internal_value=-0.00179396 0.00626353 0.00453523 -0.00392356 -0.00170059 0.015074 0.00317412 0.00671102 0.0118667 0.023771 -0.00265272 -0.000326292 -0.00483762 0.00990847 0.0201798 0.00769657 0.00629061 -0.000592237 0.00584782 0.00440957 0.00700502 0.00472142 0.00841536 0.00774381 0.0123991 0.00388399 0.00970169 -0.00391599 0.00302255 -0.00272369 0.0196537 0.0198359 0.00338679 0.00598306 0.011459 -0.00187514 0.0133587 0.00185327 0.000712223 0.016283 0.0173812 0.0163055 0.004625 0.0137683 -0.0052705 -0.00304885 0.017 0.00616783 0.00205031 0.00707918 0.0138165 0.0205182 0.00717591 0.0214615 -0.00417815 -0.00184895 0.00189272 0.0070038 0.016562 -0.00428142 -1.4964e-05 0.0118595
internal_weight=127645 26684 22308 100961 29418 4376 4807 15662 3197 1179 24611 8661 71543 6555 1068 2129 1982 6646 1104 9107 2985 2703 5311 5051 1849 862 1475 15950 798 12160 283 987 7632 2834 1220 5542 998 4798 3951 1244 1183 694 2208 777 59383 11731 900 429 477 2046 218 853 847 260 16368 3469 1566 789 242 15152 1203 299
internal_count=127645 26684 22308 100961 29418 4376 4807 15662 3197 1179 24611 8661 71543 6555 1068 2129 1982 6646 1104 9107 2985 2703 5311 5051 1849 862 1475 15950 798 12160 283 987 7632 2834 1220 5542 998 4798 3951 1244 1183 694 2208 777 59383 11731 900 429 477 2046 218 853 847 260 16368 3469 1566 789 242 15152 1203 299
is_linear=0
shrinkage=0.06


Tree=12
num_leaves=63
num_cat=0
split_feature=2 21 5 2 5 21 5 20 20 2 28 2 18 28 2 25 9 21 18 28 12 9 2 14 28 25 22 14 28 3 15 19 28 20 14 1 16 15 6 21 28 7 13 13 1 16 15 5 15 25 2 25 28 2 1 17 0 2 28 16 12 23
split_gain=557.891 108.761 80.1815 72.6042 46.1467 36.5211 28.7219 26.2527 24.8782 23.6977 21.2565 16.0196 14.8971 17.7891 13.2835 10.7935 10.4332 10.2228 9.94702 17.2248 9.78871 9.31667 12.2052 9.11141 15.6797 8.87457 9.28044 11.7786 7.18672 9.53965 7.1737 6.97814 17.7701 17.2183 8.55306 8.86257 7.09388 6.85271 6.27765 6.5301 8.0634 8.02314 6.18174 6.44553 8.74969 8.59356 6.15692 8.56869 6.0596 5.92798 9.15366 5.91184 5.83904 5.80563 5.80228 5.72881 5.59929 5.56718 5.49251 5.42783 12.6975 5.3476
threshold=8812.6216666666678 0.70581670320594814 34848.896250000013 24237.454166666674 47619.175000000003 0.5163939593874618 19028.748750000002 -0.78574730703237861 -0.91023613416931226 14544.698333333336 8.5000000000000018 12451.104166666666 0.56700000000000006 4.5000000000000009 2209.4562500000006 1.0000000180025095e-35 0.39163269989598326 -0.88545602565320969 0.0080000000000000019 8.5000000000000018 -0.073135073455997665 0.57702011263510367 16182.454583333334 1.0000000180025095e-35 9.5000000000000018 1.0000000180025095e-35 1.0000000180025095e-35 -0.0075949657914603794 9.5000000000000018 1840.0504263356486 0.22434745471699361 0.14250000000000004 9.5000000000000018 0.51639395938746258 -0.07745417414073745 4953.670000000001 0.042306020843122079 0.070301554809485522 7807.7344755446829 0.40966402954315184 6.5000000000000009 0.11360385479657077 5.5777317206589538 2.57593919627329 15256.796875000002 -0.050599447121416501 1.0000000180025095e-35 55100.950000000004 0.051066775025787457 1.0000000180025095e-35 4258.6495833333347 1.0000000180025095e-35 2.5000000000000004 7877.3662500000019 13278.952500000001 6.1157500000000029 801.90250000000015 18799.022500000003 7.5000000000000009 -0.019019216391749746 0.41734972677595633 1.0000000180025095e-35
decision_type=2 2 2 2 2 2 2 2 2 2 2 2 2 2 2 2 2 2 2 2 2 2 2 2 2 2 2 2 2 2 2 2 2 2 2 2 2 2 2 2 2 2 2 2 2 2 2 2 2 2 2 2 2 2 2 2 2 2 2 2 2 2
left_child=2 4 6 9 16 30 -1 12 10 46 21 38 13 -8 -15 55 57 -13 19 -9 54 22 -6 24 -11 26 27 -16 29 -29 -4 32 -20 34 35 36 -34 -5 39 40 -10 -42 43 44 -19 -45 47 59 -36 50 -21 -26 -40 -33 -18 -12 -32 -2 -56 60 -3 -25
right_child=1 3 5 37 8 -7 7 18 11 23 15 17 -14 14 25 -17 20 42 31 49 -22 -23 -24 61 51 -27 -28 28 -30 -31 56 53 33 -35 48 -37 -38 -39 52 -41 41 -43 -44 45 -46 -47 -48 -49 -50 -51 -52 -53 -54 -55 58 -57 -58 -59 -60 -61 -62 -63
leaf_value=-206.05759380999839 35.271952731376196 34.521389533003017 92.329350647223706 669.6428001427355 374.1752804122753 -119.84282144670514 -52.346688848584932 -90.877054493986137 212.98349566973795 117.93740872845622 885.81377085863687 264.20305165072011 -70.237037064664918 -43.399385999238433 274.70587301806199 58.428834141432503 181.679359822272 88.114246238794536 -114.80135988594836 187.53846216131404 106.41467532311351 899.81292323937384 734.90640932610199 47.351372507104379 269.63173923338604 -82.852497553294725 35.530565897508495 68.570851320105206 23.43680528986199 277.96712455927178 -201.57854235522831 -153.29014964537166 224.34069923890607 -196.00232133824181 147.84345064693611 388.4984472212584 38.793770218769822 479.06266919287691 222.88189190114289 35.002638268768116 739.25275629987539 121.32315847626376 353.3706279457931 670.81289527919296 333.33388421589427 427.45105958416872 -39.77054998736164 141.00563296327425 -33.955324288224261 -93.569740434354273 311.24376908481463 327.39191723412131 90.558535173918628 -26.051180903149334 217.75580462750017 820.69598976843713 281.18123074601203 234.79632010344372 481.49278904734911 -15.123877062238153 137.32732309588775 193.78668193635795
leaf_weight=49439 1658 2046 6179 524 334 5112 1217 768 175 803 59 970 3494 616 401 213 1002 327 2594 205 2880 124 226 1504 109 217 374 315 317 227 74 26823 124 319 89 76 101 142 224 128 114 42 132 432 339 1199 4174 415 177 58 130 141 1051 2058 145 59 215 62 88 3509 76 426
leaf_count=49439 1658 2046 6179 524 334 5112 1217 768 175 803 59 970 3494 616 401 213 1002 327 2594 205 2880 124 226 1504 109 217 374 315 317 227 74 26823 124 319 89 76 101 142 224 128 114 42 132 432 339 1199 4174 415 177 58 130 141 1051 2058 145 59 215 62 88 3509 76 426
internal_value=-0.00183432 0.0060362 -0.00383462 0.00241877 0.010223 0.000865284 -0.00443841 -0.00325799 0.0138504 0.00144376 0.0224335 0.0121531 3.51058e-05 0.00269707 0.00562545 0.00995166 0.00640103 0.0145472 -0.00396313 0.00149354 0.00804131 0.0284737 0.0251786 0.00614884 0.0106382 0.00816531 0.00967931 0.0121429 0.00817928 0.0123764 0.00386085 -0.0041589 -0.00162069 0.00571557 0.0119894 0.0189169 0.0129333 0.0217477 0.00746021 0.0134771 0.0179275 0.0278462 0.0166266 0.0173522 0.0123784 0.0193832 7.04487e-05 0.00129408 0.00415037 0.0117099 0.0147761 0.02376 0.00529412 -0.00446474 0.0125101 0.0245085 0.0131003 0.00247674 0.0210386 0.000680872 0.00307634 0.00369948
internal_weight=127571 25852 101719 13869 11983 11580 90139 40700 6148 13203 1015 5133 7178 3684 2467 331 5835 3399 33522 1161 4115 684 560 2983 1053 1851 1634 1260 859 542 6468 32361 3480 886 567 301 225 666 1734 459 331 156 2429 2297 666 1631 10220 6046 266 393 335 250 1275 28881 1235 118 289 1720 233 5631 2122 1930
internal_count=127571 25852 101719 13869 11983 11580 90139 40700 6148 13203 1015 5133 7178 3684 2467 331 5835 3399 33522 1161 4115 684 560 2983 1053 1851 1634 1260 859 542 6468 32361 3480 886 567 301 225 666 1734 459 331 156 2429 2297 666 1631 10220 6046 266 393 335 250 1275 28881 1235 118 289 1720 233 5631 2122 1930
is_linear=0
shrinkage=0.06


Tree=13
num_leaves=63
num_cat=0
split_feature=2 2 21 5 5 20 21 20 2 5 21 28 26 14 28 21 8 0 16 25 8 21 2 19 14 12 8 2 9 16 28 20 14 24 25 19 17 9 2 14 25 28 28 5 2 26 28 11 4 28 17 11 7 25 15 20 21 8 28 19 20 14
split_gain=490.386 92.544 79.0983 70.621 31.0383 28.4094 28.2321 27.1705 18.5682 14.916 14.3891 12.4994 16.1196 10.4074 11.5111 10.8606 9.92388 13.6964 9.60507 11.141 9.55432 9.53309 9.51322 8.98137 8.64388 9.89752 8.20718 8.18099 7.57679 8.42927 7.3059 23.4376 24.3596 12.3892 7.92371 11.9818 7.26587 7.17257 7.12556 7.01853 6.58164 6.68325 6.48158 7.63473 6.34177 6.62841 6.26783 6.63532 6.07875 5.98553 6.84799 5.84341 5.82844 5.75871 10.9194 8.37574 8.57511 6.87048 6.42019 5.71469 5.63267 5.63142
threshold=8719.2229166666693 16182.454583333334 0.70581670320594814 37737.597500000011 19129.555000000004 -0.78574730703237861 0.61559370248597578 -0.85421994577343319 24237.454166666674 46385.171250000007 0.17992617227144031 3.5000000000000004 1.0000000180025095e-35 0.12991173398425479 4.5000000000000009 1.0000000180025095e-35 -0.32699874170222276 9166.7737500000021 0.0052404710671837282 1.0000000180025095e-35 -0.011559371841910747 0.70581670320594814 3567.3225000000002 0.14250000000000004 -0.16522589490953174 -0.19219904389395912 0.22796370665084356 3192.5016666666675 0.59365703909355572 0.0028503863919968624 8.5000000000000018 -0.12053668025532321 0.052177989367023565 1.0000000180025095e-35 1.0000000180025095e-35 0.33650000000000008 25.1325 0.534520643900673 1026.0979166666668 -0.19926572413934254 1.0000000180025095e-35 9.5000000000000018 5.5000000000000009 44441.195000000007 11697.317500000003 1.0000000180025095e-35 9.5000000000000018 0.84625000000000006 227.26982142857148 3.5000000000000004 11.491499999999997 0.26615000000000005 0.11459395235356708 1.0000000180025095e-35 0.092771882287000326 0.35460488704253579 1.0000000180025095e-35 0.27448750964718821 10.500000000000002 1.1015000000000001 -0.95297903005573326 0.086266620159054383
decision_type=2 2 2 2 2 2 2 2 2 2 2 2 2 2 2 2 8 2 2 2 8 2 2 2 2 2 8 2 2 2 2 2 2 2 2 2 2 2 2 2 2 2 2 2 2 2 2 2 2 2 2 2 2 2 2 2 2 10 2 2 2 2
left_child=3 2 9 4 -1 10 36 46 39 18 11 -6 27 15 23 28 17 -4 19 20 -2 22 -7 -15 25 -18 -10 -13 29 -11 -24 32 33 51 -33 -36 53 -38 -14 -9 41 -29 -27 -44 -26 -46 -3 -48 61 -50 -51 -32 -53 57 -55 -56 -57 -5 -58 -43 -16 -41
right_child=1 7 16 6 5 21 -8 8 26 13 -12 12 38 14 60 -17 24 -19 -20 -21 -22 -23 30 -25 44 42 -28 40 -30 -31 31 34 -34 -35 35 -37 37 -39 -40 48 -42 59 43 -45 45 -47 47 -49 49 50 -52 52 -54 54 55 56 58 -59 -60 -61 -62 -63
leaf_value=-194.8315271559128 184.5136556025719 692.6667657686196 -307.01300948779328 4.7620952550382816 -56.634416750822339 -210.26855327999951 -127.03154029760809 384.54348582764754 562.56878651624675 425.73727029157504 -80.569653788657376 -40.087604263631079 -114.51602908212674 -57.641938974980306 599.52356940558991 197.79728656285661 -15.67446012016914 174.59503908829774 145.91591397994333 158.64522544120931 -4.4785879589820841 -169.77811399923957 -67.018252800751213 323.94268705988503 -38.138890822371614 43.348604560844372 563.82694207594477 148.85849979720209 813.72262012846954 251.63512303207213 11.541476682988115 -95.72453765122205 -152.80660046794253 375.46512014406647 -14.139315096983452 225.47856310438047 128.64235452241513 454.77328400311558 235.22831626952919 216.27769346862215 -78.407283677007641 171.9711987912803 107.00353154266999 206.15207111766989 46.177580376333118 -59.525730169862229 127.37606727615997 728.89953704282289 497.72650099439375 299.37104514148922 763.94250969410029 259.09933996329494 151.516018956149 408.96230554786217 -22.767671798437625 171.64696216555186 -41.256873936032562 183.52661278795404 188.58991701983294 -84.595045066063577 66.509680443614982 111.41991350254344
leaf_weight=49973 77 414 62 2346 1150 6688 3285 267 414 581 3164 1064 68 122 74 1062 1026 88 2876 652 1842 14993 9118 471 5313 469 529 945 72 903 169 2683 298 108 382 127 462 167 524 1200 295 161 385 190 2684 1143 95 46 221 594 48 79 241 166 803 883 518 194 69 326 1070 1034
leaf_count=49973 77 414 62 2346 1150 6688 3285 267 414 581 3164 1064 68 122 74 1062 1026 88 2876 652 1842 14993 9118 471 5313 469 529 945 72 903 169 2683 298 108 382 127 462 167 524 1200 295 161 385 190 2684 1143 95 46 221 594 48 79 241 166 803 883 518 194 69 326 1070 1034
internal_value=-0.00195585 0.00539179 0.00367678 -0.00384069 -0.00433139 -0.00314111 0.00126639 0.0128564 0.0112463 0.00762579 0.000158242 0.00232561 0.00416258 0.0102434 0.00664249 0.0126325 0.000269365 0.0156 0.00553295 0.00286814 0.000565918 -0.00386906 -0.00300799 0.0134266 6.42269e-05 0.00356522 0.0186872 0.0022551 0.0158252 0.014903 -0.00207422 3.37642e-05 0.00861452 0.015608 -0.00237218 0.00449116 0.00385378 0.00993005 0.0131554 0.00916052 0.00480486 0.00648603 0.00767816 0.0119478 -0.000728667 0.00113352 0.0253513 0.0144255 0.00835583 0.0126327 0.00970093 0.011546 0.0163125 0.00308616 0.00516851 0.00408359 0.00677551 0.00108661 0.00115502 0.000776179 0.00312587 0.00670367
internal_weight=127473 26024 21162 101449 92556 42583 8893 4862 4307 9802 7697 4533 3383 4355 1737 2618 11360 150 5447 2571 1919 34886 19893 593 11210 2070 943 2791 1556 1484 13205 4087 895 597 3192 509 5608 629 592 3364 1727 1432 1044 575 9140 3827 555 141 3097 863 642 489 320 4979 2439 2273 1470 2540 587 487 1144 2234
internal_count=127473 26024 21162 101449 92556 42583 8893 4862 4307 9802 7697 4533 3383 4355 1737 2618 11360 150 5447 2571 1919 34886 19893 593 11210 2070 943 2791 1556 1484 13205 4087 895 597 3192 509 5608 629 592 3364 1727 1432 1044 575 9140 3827 555 141 3097 863 642 489 320 4979 2439 2273 1470 2540 587 487 1144 2234
is_linear=0
shrinkage=0.06


Tree=14
num_leaves=63
num_cat=0
split_feature=1 2 21 5 21 20 5 2 11 20 8 1 20 14 0 15 28 14 28 28 5 16 2 26 25 21 21 20 28 18 1 25 5 9 15 21 20 2 25 28 1 23 14 25 25 20 14 11 16 15 0 11 24 20 2 28 24 14 5 20 11 11
split_gain=443.652 89.7659 65.9311 59.4773 36.7893 25.4469 24.8744 19.3527 18.6499 17.9552 17.9415 17.905 16.7129 14.7889 13.5872 11.539 10.887 9.62439 13.9149 9.33403 9.32977 8.97978 12.2864 9.22617 8.7648 8.07218 8.04334 15.6035 9.89202 10.8722 8.40805 8.79542 7.88355 13.7788 9.08042 10.3867 7.63722 7.38048 7.17168 6.97861 6.81105 8.78443 6.65766 6.56593 6.41159 13.5807 6.34078 6.11193 6.04734 5.92834 6.60084 5.68666 7.74639 5.64087 13.6181 9.07904 7.73749 6.22608 5.62673 5.61625 5.44978 5.30907
threshold=8237.3818750000009 16673.556666666671 0.70581670320594814 23170.258750000005 0.61559370248597578 -0.70581670320594825 37737.597500000011 10473.66666666667 0.49405000000000004 -0.2393156642875576 -0.32699874170222276 24955.202500000003 -0.85421994577343319 -0.099937849104825408 4252.6900000000014 0.073737854920365928 6.5000000000000009 0.1448888481024149 4.5000000000000009 5.5000000000000009 67754.92750000002 0.064535750117730953 4732.1375000000007 1.0000000180025095e-35 1.0000000180025095e-35 -0.95297903005573326 0.23931566428755774 -0.2393156642875576 7.5000000000000009 0.24600000000000002 4849.7262500000006 1.0000000180025095e-35 59909.200000000012 0.57222155931595886 1.0000000180025095e-35 -0.060268340127661524 -0.1799261722714405 11578.759583333336 1.0000000180025095e-35 4.5000000000000009 15256.796875000002 1.0000000180025095e-35 -0.098191449874914835 1.0000000180025095e-35 1.0000000180025095e-35 0.17992617227144039 -0.16268188510540041 0.68350000000000011 -0.034582605784445435 0.22037394496813037 1199.4412500000001 0.36355000000000004 1.0000000180025095e-35 -0.51639395938746191 3633.4020833333334 6.5000000000000009 1.0000000180025095e-35 -0.134884612009007 66269.333750000005 0.35460488704253579 0.8821500000000001 0.17095000000000002
decision_type=2 2 2 2 2 2 2 2 2 2 8 2 2 2 2 2 2 2 2 2 2 2 2 2 2 2 2 2 2 2 2 2 2 2 2 2 2 2 2 2 2 2 2 2 2 2 2 2 2 2 2 2 2 2 2 2 2 2 2 2 2 2
left_child=3 2 7 14 6 8 9 12 20 17 36 -7 15 16 53 19 -12 18 -5 -2 -3 22 -20 -23 -17 -9 27 28 -16 30 -30 -32 40 34 35 -34 -4 -15 -18 -26 41 46 -6 -11 -14 -46 -27 48 -47 -8 -51 52 -24 54 -1 -56 -57 -58 -35 -45 -13 -40
right_child=1 5 10 4 42 11 49 25 -10 43 13 60 44 37 26 24 38 -19 21 -21 -22 23 51 -25 39 32 -28 -29 29 -31 31 -33 33 58 -36 -37 -38 -39 61 -41 -42 -43 -44 59 45 47 -48 -49 -50 50 -52 -53 -54 -55 55 56 57 -59 -60 -61 -62 -63
leaf_value=-155.192265680731 146.97930787878403 510.25408221761398 99.033962415265918 -46.641013385905723 -70.578582705373762 206.90572001135646 79.245771684661648 98.75543705966318 846.83606324762206 -105.2419465350073 10.453951646503457 536.55932800095661 18.322876517760616 -59.377072551905023 -19.860622340253343 524.89948729924515 61.620076730043351 -51.920593835211044 -38.155195633811168 40.238004540847705 218.98999703122905 122.22589431097965 4.9480908518365121 292.40942908587044 362.86432584441883 260.61179158617443 -96.950312818686413 -86.795802613888412 38.784910222614947 -65.356125674697793 198.95021734295648 -116.31648120408323 516.69205773984925 203.63226347194862 211.61749149547475 282.45480391006805 174.181773486286 16.830559684833773 303.19604295730579 -42.430358548298514 345.40160780454988 16.366118172262539 -181.58107493309612 -174.99746598418673 -45.774442898181391 140.55016335090897 152.90910151579169 -0.30838949289409978 210.2431793026285 -195.64840073933945 242.01151378151252 184.62982433487537 338.38689575893352 -228.15497843612275 -79.796023835195015 68.123501365598855 180.63065617679294 10.652405609212797 1095.0589140535685 55.953360426016182 528.81465932527192 130.09218023751097
leaf_weight=11499 381 324 67 1296 4731 2679 4465 786 272 7349 1414 627 3055 5619 1628 245 693 2148 881 550 255 724 309 331 53 437 7593 4225 328 375 393 66 239 42 717 204 62 3715 144 113 276 562 8884 355 616 536 2311 209 374 89 246 251 73 38646 791 640 91 61 79 920 281 373
leaf_count=11499 381 324 67 1296 4731 2679 4465 786 272 7349 1414 627 3055 5619 1628 245 693 2148 881 550 255 724 309 331 53 437 7593 4225 328 375 393 66 239 42 717 204 62 3715 144 113 276 562 8884 355 616 536 2311 209 374 89 246 251 73 38646 791 640 91 61 79 920 281 373
internal_value=-0.00194042 0.00468598 0.00322922 -0.00382791 -0.00174852 0.0125219 -7.31609e-05 0.00642257 0.0218496 -0.00130232 0.00011566 0.0103089 0.00408806 -0.000124437 -0.00486397 0.010006 0.00385518 0.00121437 0.00300388 0.00630934 0.0157617 0.00556092 0.00259973 0.00981043 0.0183796 0.00895489 -0.00324808 -0.00178332 0.00169892 0.00592771 0.00993392 0.0151765 0.00986604 0.0139063 0.0118966 0.0186501 0.0223721 -0.0012432 0.00803306 0.00773494 0.00842275 0.00766767 -0.00414029 -0.00305705 0.00243006 0.00534294 0.0090655 0.0092815 0.0114066 0.003675 0.0113731 0.0089763 0.00436649 -0.00532029 -0.00424339 0.000974098 0.00551515 0.0176842 0.0331736 0.000917646 0.0175903 0.013381
internal_weight=127698 28310 23872 99388 33052 4438 19437 11785 851 14637 12087 3587 6132 11958 66336 1342 2624 6013 3865 931 579 2569 1514 1055 411 5653 14608 7015 2790 1162 787 459 4867 1281 1160 443 129 9334 1210 166 3586 3310 13615 8624 4790 1735 2748 1119 910 4800 335 633 382 51728 13082 1583 792 152 121 1275 908 517
internal_count=127698 28310 23872 99388 33052 4438 19437 11785 851 14637 12087 3587 6132 11958 66336 1342 2624 6013 3865 931 579 2569 1514 1055 411 5653 14608 7015 2790 1162 787 459 4867 1281 1160 443 129 9334 1210 166 3586 3310 13615 8624 4790 1735 2748 1119 910 4800 335 633 382 51728 13082 1583 792 152 121 1275 908 517
is_linear=0
shrinkage=0.06


Tree=15
num_leaves=63
num_cat=0
split_feature=2 21 5 2 1 21 0 21 8 28 18 8 11 11 22 11 2 25 28 18 19 25 25 28 18 28 25 15 14 17 28 26 28 11 16 25 19 28 11 17 2 28 8 2 8 21 16 28 13 11 25 28 19 17 26 14 2 11 14 13 2 16
split_gain=408.439 69.9264 53.4356 43.1789 42.5875 28.2468 25.0062 22.4809 23.5132 12.3463 16.8688 12.2439 22.0773 12.2008 11.6795 11.3854 12.1235 11.1338 11.5807 10.5003 16.4202 16.9393 12.0441 11.5618 10.1182 13.4723 8.65927 8.38134 8.2196 7.99679 7.93316 7.8548 7.54751 7.45572 7.431 19.4677 7.08468 16.4764 6.8054 6.7385 12.2711 8.34294 6.63174 6.54005 6.48198 6.41306 6.27437 11.2966 8.5499 6.25715 6.21158 6.88191 12.7898 11.0089 8.49305 6.18467 6.03962 6.01431 5.85806 5.84425 5.79832 5.71804
threshold=8177.3095833333346 0.78574730703237883 33708.197500000002 13733.595000000003 24955.202500000003 0.61559370248597578 3641.1875000000005 0.40966402954315184 0.23531493372342696 3.5000000000000004 0.29450000000000004 0.32663628943023831 0.81875000000000009 0.73735000000000006 1.0000000180025095e-35 0.96150000000000013 11578.759583333336 1.0000000180025095e-35 5.5000000000000009 1.0320000000000003 0.56700000000000006 1.0000000180025095e-35 1.0000000180025095e-35 2.5000000000000004 0.16000000000000003 4.5000000000000009 1.0000000180025095e-35 0.10514597811812777 -0.102969112157971 21.803875000000005 7.5000000000000009 1.0000000180025095e-35 9.5000000000000018 0.85015000000000007 -0.036313115122421684 1.0000000180025095e-35 0.081500000000000017 10.500000000000002 0.21215000000000003 9.756000000000002 3502.9225000000006 8.5000000000000018 0.14299784076083613 5785.0304166666674 -0.076623783332592607 -0.88545602565320969 -0.0017445076838753513 7.5000000000000009 4.0817586101219447 0.35025000000000006 1.0000000180025095e-35 6.5000000000000009 0.33650000000000008 -20.784875 1.0000000180025095e-35 -0.17177197551765946 4807.7954166666686 0.16175000000000003 -0.17572618846230154 3.7242407400029087 5294.9925000000012 0.109116199544686
decision_type=2 2 2 2 2 2 2 2 8 2 2 8 2 2 2 2 2 2 2 2 2 2 2 2 2 2 2 2 2 2 2 2 2 2 2 2 2 2 2 2 2 2 8 2 10 2 2 2 2 2 2 2 2 2 2 2 2 2 2 2 2 2
left_child=2 3 6 13 15 29 39 8 9 -8 14 12 -5 19 17 16 -3 18 -11 20 21 28 27 38 -23 -26 36 44 46 50 -12 -18 61 -6 35 -13 37 -10 -21 -1 -41 -42 -15 -39 -22 -28 -2 -48 -49 -25 51 52 -4 -53 -54 -43 -20 -52 -9 -31 -59 -24
right_child=1 4 5 11 33 -7 7 58 26 10 30 34 -14 42 -16 -17 31 -19 56 23 22 24 32 49 25 -27 45 -29 -30 59 -32 -33 -34 -35 -36 -37 -38 43 -40 40 41 55 -44 -45 -46 -47 47 48 -50 -51 57 53 54 -55 -56 -57 -58 60 -60 -61 -62 -63
leaf_value=-223.73853799226563 61.889905898482375 -33.480367147023941 -97.401917573815638 262.65164132745502 467.19437535779002 -134.39545036371379 -44.337014127486391 -38.945031101529842 -48.137646014433443 15.301247600927931 50.201280766382268 185.90083431344846 650.13104743323993 84.517982954526971 -24.137918685986829 102.65802980695585 68.759737429923362 -134.04906469853131 162.70843718587739 35.379014063555204 -261.37777953311479 132.62791749637813 126.13159525135931 -91.49888378862606 96.058202366028198 293.05078451088264 -103.1757584277114 1043.1876624710701 5.4358606180790598 119.34625886695052 -146.7391145234852 -36.570069336500964 -64.416008940515297 498.15017060000548 221.03253776984323 563.00593040930016 -97.636846610983028 126.8187055674842 273.75984492884726 -141.59374731801213 -23.950809792683575 360.65309311190026 -27.571230582425603 344.16047500923037 443.63572207703999 58.948580906708393 87.872368293843209 232.42983461661618 764.23107609939234 109.80050126089583 20.686340768306465 279.06959231554237 67.48255693403452 -130.48409104728717 187.54585661310182 150.23857018667252 192.51831320516254 59.592925418470458 -149.33988649287843 521.75253074645536 199.42989693722484 203.63638691533546
leaf_weight=44187 812 6420 756 1560 224 4367 1730 2801 726 383 854 473 355 658 498 85 4483 173 630 126 51 1648 566 930 395 658 502 92 2102 772 1016 1597 232 312 1614 379 10692 93 130 5707 519 57 1419 41 548 1076 235 91 73 311 1116 47 730 1654 379 209 635 579 15400 136 749 138
leaf_count=44187 812 6420 756 1560 224 4367 1730 2801 726 383 854 473 355 658 498 85 4483 173 630 126 51 1648 566 930 395 658 502 92 2102 772 1016 1597 232 312 1614 379 10692 93 130 5707 519 57 1419 41 548 1076 235 91 73 311 1116 47 730 1654 379 209 635 579 15400 136 749 138
internal_value=-0.0020177 0.0042838 -0.00384164 0.00699949 0.00105586 4.51913e-05 -0.00434048 -0.00316027 -0.00171946 0.00142017 0.00318119 0.0120507 0.0156501 0.0050263 0.00660026 0.000350416 0.000201599 0.00882702 0.0103471 0.0059698 0.00687004 0.00542334 0.0122176 0.00137475 0.00895002 0.0135442 -0.00313481 0.0182258 0.00254814 0.00243018 -0.00105882 0.00212171 0.00778205 0.0176194 0.00925547 0.0137887 -0.0037043 0.00153488 0.0129844 -0.00520796 -0.00340296 0.00363057 0.000875299 0.0208657 0.0156361 0.00103422 0.00648555 0.0126466 0.0247317 -0.00102015 0.00163727 4.03799e-05 0.00255764 -0.00271958 0.00666005 0.0122707 0.0131146 0.00396727 -0.00466821 0.00767841 0.00669578 0.010875
internal_weight=127931 28717 99214 15596 13121 11285 87929 37250 19049 5919 4189 4381 1915 11215 2319 12585 12500 1821 1648 9138 7641 6014 1627 1497 2701 1053 13130 691 3313 6918 1870 6080 936 536 2466 852 11552 860 256 50679 6492 785 2077 134 599 1578 1211 399 164 1241 6010 3566 1865 1701 1109 266 1265 2444 18201 908 1328 704
internal_count=127931 28717 99214 15596 13121 11285 87929 37250 19049 5919 4189 4381 1915 11215 2319 12585 12500 1821 1648 9138 7641 6014 1627 1497 2701 1053 13130 691 3313 6918 1870 6080 936 536 2466 852 11552 860 256 50679 6492 785 2077 134 599 1578 1211 399 164 1241 6010 3566 1865 1701 1109 266 1265 2444 18201 908 1328 704
is_linear=0
shrinkage=0.06


Tree=16
num_leaves=63
num_cat=0
split_feature=2 2 21 5 20 2 21 20 1 18 2 28 20 2 28 11 25 26 22 14 21 20 28 25 11 8 14 28 25 16 20 4 14 20 11 3 11 14 25 20 11 6 15 28 22 15 15 20 28 22 25 21 13 13 2 26 28 21 16 11 17 16
split_gain=368.687 66.6245 49.2574 45.8726 28.9149 26.7254 20.5072 20.5059 18.313 15.6719 15.6019 14.993 14.4896 18.0172 15.9115 14.2925 11.831 11.0924 10.4135 11.5859 10.2973 9.86413 26.9316 11.3177 9.02851 12.495 7.61108 12.5709 11.3244 11.6813 7.84127 11.9127 7.48367 7.21512 14.221 7.08019 7.02212 8.10861 8.50914 8.08631 6.95123 6.64724 6.50244 7.6194 6.40413 6.38758 6.30112 6.18804 12.9245 8.39817 5.81042 8.48712 8.60572 5.68563 5.60576 6.67037 5.57591 5.48206 5.4787 5.47191 5.49543 5.44024
threshold=7877.3662500000019 15725.67 0.78574730703237883 37737.597500000011 -0.70581670320594825 3502.9225000000006 0.61559370248597578 -0.78574730703237861 24955.202500000003 0.81450000000000011 5122.8133333333344 3.5000000000000004 -0.85421994577343319 11307.026250000001 9.5000000000000018 0.48755000000000004 1.0000000180025095e-35 1.0000000180025095e-35 1.0000000180025095e-35 -0.083631997960266116 0.70581670320594814 -0.12053668025532321 9.5000000000000018 1.0000000180025095e-35 0.93410000000000015 -0.32699874170222276 0.12292886981850885 8.5000000000000018 1.0000000180025095e-35 0.033030458031475758 0.91023613416931248 -25.058095238095152 -0.0055257097689056485 0.29696027566504674 0.32550000000000007 3171.112788608651 0.70215000000000016 0.15675215585656463 1.0000000180025095e-35 0.17992617227144039 0.87155000000000016 4982.6915062202161 0.062673106579774526 7.5000000000000009 1.0000000180025095e-35 0.26871844159856234 0.086916133910051291 -0.2393156642875576 7.5000000000000009 1.0000000180025095e-35 1.0000000180025095e-35 0.29696027566504685 2.1213148428753406 3.7077343057707561 11578.759583333336 1.0000000180025095e-35 5.5000000000000009 -0.35460488704253562 0.056212377536124965 0.87735000000000007 -23.672999999999998 0.023906692571883829
decision_type=2 2 2 2 2 2 2 2 2 2 2 2 2 2 2 2 2 2 2 2 2 2 2 2 2 8 2 2 2 2 2 2 2 2 2 2 2 2 2 2 2 2 2 2 2 2 2 2 2 2 2 2 2 2 2 2 2 2 2 2 2 2
left_child=3 2 12 4 5 45 53 15 33 11 50 -7 14 36 17 32 18 -2 19 42 21 22 -12 44 54 -26 27 41 29 -29 31 -30 -3 59 -35 -19 37 38 47 -40 -10 -15 -13 -44 -24 -1 -21 48 -14 -50 -6 52 -52 -5 -4 -56 -47 -49 -48 60 -9 -43
right_child=1 7 24 6 10 9 -8 8 40 -11 20 16 13 26 -16 -17 -18 35 -20 46 -22 -23 23 -25 25 -27 -28 28 30 -31 -32 -33 -34 34 -36 -37 -38 -39 39 -41 -42 61 43 -45 -46 56 58 57 49 -51 51 -53 -54 -55 55 -57 -58 -59 -60 -61 -62 -63
leaf_value=-112.29780041338417 188.8124651884751 357.12119691998896 -37.262734971904642 57.415563821721619 -198.48052250810662 -50.983235200880578 -130.21335730655494 397.18856152779517 498.36107622352074 -71.283904941714795 -39.562812976101711 175.07047608691022 -3.2498895922003883 9.200025776524912 41.237807036881108 739.69828619495195 -111.28431668247437 484.04120614753776 1.2278318370220511 67.688231312901664 -115.12950668822006 -44.135454476051066 282.48866814950651 -52.626356358477068 142.49376725364894 -67.405817502918538 86.531112089215725 16.332288371019533 283.20202216430096 501.52815025829454 649.40541326063214 45.41411802934622 104.71941073856948 459.83228404054671 184.24190636609495 667.84270071750473 -20.545689691611223 -26.299762296943168 3.2510868729934059 173.87226020634589 463.26705259032565 256.45056119464226 144.58079985806586 448.27638050394256 12.613555238630227 -176.60884049929118 161.53366661514141 -38.115793987697693 703.90943871041077 120.75122212141387 144.12871621152439 -159.15242850049103 -33.353086047229489 186.03674052085103 42.982677043777223 -61.996739830314098 172.45813756388168 71.163907877860993 194.83141730385839 346.99978555307052 90.725651576691959 44.881816756758241
leaf_weight=10784 1649 361 6922 4223 50647 1098 2720 51 614 2924 926 283 239 492 627 241 410 56 699 1350 9783 7526 219 71 91 72 1549 258 157 94 126 116 205 316 709 114 1890 1197 336 1048 333 930 47 64 43 70 108 1064 98 85 213 1685 754 696 2899 1260 96 1174 247 160 2398 368
leaf_count=10784 1649 361 6922 4223 50647 1098 2720 51 614 2924 926 283 239 492 627 241 410 56 699 1350 9783 7526 219 71 91 72 1549 258 157 94 126 116 205 316 709 114 1890 1197 336 1048 333 930 47 64 43 70 108 1064 98 85 213 1685 754 696 2899 1260 96 1174 247 160 2398 368
internal_value=-0.00204141 0.00374091 0.00243242 -0.0038349 -0.0042136 -0.00207591 0.000629139 0.00979064 0.00823706 0.000755185 -0.00475437 0.00305713 0.00485242 0.00394029 0.00903679 0.0186097 0.00512843 0.011878 0.00652323 0.00863554 -0.00325657 -0.00176551 0.00315012 0.0177838 -0.000509073 0.0135092 0.00711491 0.00913577 0.0156511 0.00780682 0.0225714 0.0168571 0.0133993 0.00630049 0.0105659 0.0264706 0.00211948 0.00325014 0.00453412 0.00834971 0.0156684 0.00640223 0.0179086 0.0302162 0.023542 -0.00394521 0.00649267 0.00254887 0.00921327 0.0212131 -0.00527616 -0.00253846 0.00194209 0.00294084 -0.00071528 0.00102573 0.00773494 0.00129222 0.0136056 0.00462476 0.00392242 0.00865331
internal_weight=127985 30299 24911 97686 90047 18180 7639 5388 4581 7230 71867 4306 13667 11221 2446 807 3208 1819 2798 2099 18568 8785 1259 333 11244 163 4090 2541 751 352 399 273 566 3634 1025 170 7131 5241 4044 1384 947 1790 394 111 262 10950 1705 2660 422 183 53299 2652 967 4919 11081 4159 166 2238 355 2609 2449 1298
internal_count=127985 30299 24911 97686 90047 18180 7639 5388 4581 7230 71867 4306 13667 11221 2446 807 3208 1819 2798 2099 18568 8785 1259 333 11244 163 4090 2541 751 352 399 273 566 3634 1025 170 7131 5241 4044 1384 947 1790 394 111 262 10950 1705 2660 422 183 53299 2652 967 4919 11081 4159 166 2238 355 2609 2449 1298
is_linear=0
shrinkage=0.06


Tree=17
num_leaves=63
num_cat=0
split_feature=1 2 5 21 5 20 21 8 20 5 17 28 21 28 1 14 21 20 26 3 2 14 16 21 28 26 28 2 28 14 15 13 21 11 28 8 2 8 15 4 11 25 20 13 17 8 13 20 2 28 12 28 11 15 8 8 25 25 20 28 8 5
split_gain=332.418 58.2879 56.1013 40.0381 30.8765 29.7534 18.8513 14.2599 13.6224 12.1303 11.5922 21.9857 11.4175 14.0217 11.3425 11.2837 10.6938 10.5627 9.55668 12.5939 8.70837 11.2105 8.44166 7.88098 9.69349 9.52543 7.17992 7.71937 6.93244 8.38134 6.6746 6.66587 6.59017 6.17438 6.10191 6.05869 6.04083 5.97333 5.61026 5.5617 5.39966 5.37934 9.63757 6.21297 5.88391 5.21596 5.18748 5.14006 6.21577 5.3201 5.04193 5.53115 5.01243 5.0105 9.55763 8.58365 10.6626 10.6603 4.98425 4.96465 4.90847 4.859
